digraph Tree {
node [shape=box, style="filled, rounded", color="black", fontname=helvetica] ;
edge [fontname=helvetica] ;
0 [label="X[835] <= 0.5\ngini = 0.12\nsamples = 126358\nvalue = [118172, 8186]", fillcolor="#e58139ed"] ;
1 [label="X[1328] <= 0.5\ngini = 0.12\nsamples = 125060\nvalue = [117210, 7850]", fillcolor="#e58139ee"] ;
0 -> 1 [labeldistance=2.5, labelangle=45, headlabel="True"] ;
2 [label="X[16] <= 0.5\ngini = 0.17\nsamples = 27697\nvalue = [25154, 2543]", fillcolor="#e58139e5"] ;
1 -> 2 ;
3 [label="X[14] <= 0.5\ngini = 0.15\nsamples = 19785\nvalue = [18195, 1590]", fillcolor="#e58139e9"] ;
2 -> 3 ;
4 [label="X[11] <= 0.5\ngini = 0.13\nsamples = 14112\nvalue = [13141, 971]", fillcolor="#e58139ec"] ;
3 -> 4 ;
5 [label="X[7] <= 0.5\ngini = 0.12\nsamples = 12850\nvalue = [12014, 836]", fillcolor="#e58139ed"] ;
4 -> 5 ;
6 [label="X[203] <= 0.5\ngini = 0.11\nsamples = 10770\nvalue = [10130, 640]", fillcolor="#e58139ef"] ;
5 -> 6 ;
7 [label="X[1029] <= 0.5\ngini = 0.11\nsamples = 10768\nvalue = [10130, 638]", fillcolor="#e58139ef"] ;
6 -> 7 ;
8 [label="X[176] <= 0.5\ngini = 0.11\nsamples = 10765\nvalue = [10129, 636]", fillcolor="#e58139ef"] ;
7 -> 8 ;
9 [label="X[189] <= 0.5\ngini = 0.11\nsamples = 10762\nvalue = [10128, 634]", fillcolor="#e58139ef"] ;
8 -> 9 ;
10 [label="X[1] <= 0.5\ngini = 0.11\nsamples = 10741\nvalue = [10113, 628]", fillcolor="#e58139ef"] ;
9 -> 10 ;
11 [label="X[1353] <= 0.5\ngini = 0.13\nsamples = 4947\nvalue = [4607, 340]", fillcolor="#e58139ec"] ;
10 -> 11 ;
12 [label="X[423] <= 0.5\ngini = 0.13\nsamples = 4940\nvalue = [4603, 337]", fillcolor="#e58139ec"] ;
11 -> 12 ;
13 [label="X[602] <= 0.5\ngini = 0.13\nsamples = 4939\nvalue = [4603, 336]", fillcolor="#e58139ec"] ;
12 -> 13 ;
14 [label="X[701] <= 0.5\ngini = 0.13\nsamples = 4938\nvalue = [4603, 335]", fillcolor="#e58139ec"] ;
13 -> 14 ;
15 [label="X[585] <= 0.5\ngini = 0.13\nsamples = 4937\nvalue = [4603, 334]", fillcolor="#e58139ec"] ;
14 -> 15 ;
16 [label="X[640] <= 0.5\ngini = 0.13\nsamples = 4936\nvalue = [4603, 333]", fillcolor="#e58139ed"] ;
15 -> 16 ;
17 [label="X[76] <= 0.5\ngini = 0.13\nsamples = 4935\nvalue = [4603, 332]", fillcolor="#e58139ed"] ;
16 -> 17 ;
18 [label="X[114] <= 0.5\ngini = 0.13\nsamples = 4934\nvalue = [4603, 331]", fillcolor="#e58139ed"] ;
17 -> 18 ;
19 [label="X[1020] <= 0.5\ngini = 0.12\nsamples = 4933\nvalue = [4603, 330]", fillcolor="#e58139ed"] ;
18 -> 19 ;
20 [label="X[266] <= 0.5\ngini = 0.12\nsamples = 4932\nvalue = [4603, 329]", fillcolor="#e58139ed"] ;
19 -> 20 ;
21 [label="X[633] <= 0.5\ngini = 0.12\nsamples = 4931\nvalue = [4603, 328]", fillcolor="#e58139ed"] ;
20 -> 21 ;
22 [label="X[1382] <= 0.5\ngini = 0.12\nsamples = 4930\nvalue = [4603, 327]", fillcolor="#e58139ed"] ;
21 -> 22 ;
23 [label="X[271] <= 0.5\ngini = 0.12\nsamples = 4929\nvalue = [4603, 326]", fillcolor="#e58139ed"] ;
22 -> 23 ;
24 [label="X[813] <= 0.5\ngini = 0.12\nsamples = 4928\nvalue = [4603, 325]", fillcolor="#e58139ed"] ;
23 -> 24 ;
25 [label="X[208] <= 0.5\ngini = 0.12\nsamples = 4927\nvalue = [4603, 324]", fillcolor="#e58139ed"] ;
24 -> 25 ;
26 [label="X[1240] <= 0.5\ngini = 0.12\nsamples = 4926\nvalue = [4603, 323]", fillcolor="#e58139ed"] ;
25 -> 26 ;
27 [label="X[211] <= 0.5\ngini = 0.12\nsamples = 4925\nvalue = [4603, 322]", fillcolor="#e58139ed"] ;
26 -> 27 ;
28 [label="X[420] <= 0.5\ngini = 0.12\nsamples = 4924\nvalue = [4603, 321]", fillcolor="#e58139ed"] ;
27 -> 28 ;
29 [label="X[100] <= 0.5\ngini = 0.12\nsamples = 4923\nvalue = [4603, 320]", fillcolor="#e58139ed"] ;
28 -> 29 ;
30 [label="X[845] <= 0.5\ngini = 0.12\nsamples = 4915\nvalue = [4598, 317]", fillcolor="#e58139ed"] ;
29 -> 30 ;
31 [label="X[1081] <= 0.5\ngini = 0.12\nsamples = 4911\nvalue = [4596, 315]", fillcolor="#e58139ee"] ;
30 -> 31 ;
32 [label="X[1113] <= 0.5\ngini = 0.12\nsamples = 4789\nvalue = [4491, 298]", fillcolor="#e58139ee"] ;
31 -> 32 ;
33 [label="X[82] <= 0.5\ngini = 0.12\nsamples = 4321\nvalue = [4036, 285]", fillcolor="#e58139ed"] ;
32 -> 33 ;
34 [label="X[273] <= 0.5\ngini = 0.13\nsamples = 4118\nvalue = [3835, 283]", fillcolor="#e58139ec"] ;
33 -> 34 ;
35 [label="X[441] <= 0.5\ngini = 0.13\nsamples = 4089\nvalue = [3812, 277]", fillcolor="#e58139ec"] ;
34 -> 35 ;
36 [label="X[825] <= 0.5\ngini = 0.13\nsamples = 4084\nvalue = [3809, 275]", fillcolor="#e58139ed"] ;
35 -> 36 ;
37 [label="X[588] <= 0.5\ngini = 0.12\nsamples = 4079\nvalue = [3806, 273]", fillcolor="#e58139ed"] ;
36 -> 37 ;
38 [label="X[1079] <= 0.5\ngini = 0.12\nsamples = 4062\nvalue = [3793, 269]", fillcolor="#e58139ed"] ;
37 -> 38 ;
39 [label="X[650] <= 0.5\ngini = 0.12\nsamples = 4038\nvalue = [3774, 264]", fillcolor="#e58139ed"] ;
38 -> 39 ;
40 [label="X[1336] <= 0.5\ngini = 0.12\nsamples = 3962\nvalue = [3709, 253]", fillcolor="#e58139ee"] ;
39 -> 40 ;
41 [label="X[753] <= 0.5\ngini = 0.11\nsamples = 3666\nvalue = [3444, 222]", fillcolor="#e58139ef"] ;
40 -> 41 ;
42 [label="X[1350] <= 0.5\ngini = 0.11\nsamples = 3661\nvalue = [3441, 220]", fillcolor="#e58139ef"] ;
41 -> 42 ;
43 [label="X[840] <= 0.5\ngini = 0.11\nsamples = 3650\nvalue = [3433, 217]", fillcolor="#e58139ef"] ;
42 -> 43 ;
44 [label="X[1341] <= 0.5\ngini = 0.11\nsamples = 3625\nvalue = [3413, 212]", fillcolor="#e58139ef"] ;
43 -> 44 ;
45 [label="X[549] <= 0.5\ngini = 0.11\nsamples = 3563\nvalue = [3360, 203]", fillcolor="#e58139f0"] ;
44 -> 45 ;
46 [label="X[20] <= 0.5\ngini = 0.11\nsamples = 3557\nvalue = [3356, 201]", fillcolor="#e58139f0"] ;
45 -> 46 ;
47 [label="X[39] <= 0.5\ngini = 0.11\nsamples = 3320\nvalue = [3123, 197]", fillcolor="#e58139ef"] ;
46 -> 47 ;
48 [label="X[429] <= 0.5\ngini = 0.11\nsamples = 3318\nvalue = [3122, 196]", fillcolor="#e58139ef"] ;
47 -> 48 ;
49 [label="X[254] <= 0.5\ngini = 0.11\nsamples = 3316\nvalue = [3121, 195]", fillcolor="#e58139ef"] ;
48 -> 49 ;
50 [label="X[395] <= 0.5\ngini = 0.11\nsamples = 3314\nvalue = [3120, 194]", fillcolor="#e58139ef"] ;
49 -> 50 ;
51 [label="X[221] <= 0.5\ngini = 0.11\nsamples = 3312\nvalue = [3119, 193]", fillcolor="#e58139ef"] ;
50 -> 51 ;
52 [label="X[172] <= 0.5\ngini = 0.11\nsamples = 3310\nvalue = [3118, 192]", fillcolor="#e58139ef"] ;
51 -> 52 ;
53 [label="X[518] <= 0.5\ngini = 0.11\nsamples = 3308\nvalue = [3117, 191]", fillcolor="#e58139ef"] ;
52 -> 53 ;
54 [label="X[744] <= 0.5\ngini = 0.11\nsamples = 3306\nvalue = [3116, 190]", fillcolor="#e58139ef"] ;
53 -> 54 ;
55 [label="X[969] <= 0.5\ngini = 0.11\nsamples = 3304\nvalue = [3115, 189]", fillcolor="#e58139f0"] ;
54 -> 55 ;
56 [label="X[1160] <= 0.5\ngini = 0.11\nsamples = 3302\nvalue = [3114, 188]", fillcolor="#e58139f0"] ;
55 -> 56 ;
57 [label="X[84] <= 0.5\ngini = 0.11\nsamples = 3300\nvalue = [3113, 187]", fillcolor="#e58139f0"] ;
56 -> 57 ;
58 [label="X[1123] <= 0.5\ngini = 0.11\nsamples = 3298\nvalue = [3112, 186]", fillcolor="#e58139f0"] ;
57 -> 58 ;
59 [label="X[214] <= 0.5\ngini = 0.11\nsamples = 3296\nvalue = [3111, 185]", fillcolor="#e58139f0"] ;
58 -> 59 ;
60 [label="X[659] <= 0.5\ngini = 0.11\nsamples = 3294\nvalue = [3110, 184]", fillcolor="#e58139f0"] ;
59 -> 60 ;
61 [label="X[494] <= 0.5\ngini = 0.1\nsamples = 3292\nvalue = [3109, 183]", fillcolor="#e58139f0"] ;
60 -> 61 ;
62 [label="X[220] <= 0.5\ngini = 0.1\nsamples = 3285\nvalue = [3104, 181]", fillcolor="#e58139f0"] ;
61 -> 62 ;
63 [label="X[285] <= 0.5\ngini = 0.1\nsamples = 3277\nvalue = [3098, 179]", fillcolor="#e58139f0"] ;
62 -> 63 ;
64 [label="X[516] <= 0.5\ngini = 0.1\nsamples = 3144\nvalue = [2978, 166]", fillcolor="#e58139f1"] ;
63 -> 64 ;
65 [label="X[605] <= 0.5\ngini = 0.1\nsamples = 3127\nvalue = [2964, 163]", fillcolor="#e58139f1"] ;
64 -> 65 ;
66 [label="X[283] <= 0.5\ngini = 0.1\nsamples = 3068\nvalue = [2912, 156]", fillcolor="#e58139f1"] ;
65 -> 66 ;
67 [label="X[26] <= 0.5\ngini = 0.1\nsamples = 3065\nvalue = [2910, 155]", fillcolor="#e58139f1"] ;
66 -> 67 ;
68 [label="X[238] <= 0.5\ngini = 0.1\nsamples = 3062\nvalue = [2908, 154]", fillcolor="#e58139f1"] ;
67 -> 68 ;
69 [label="X[856] <= 0.5\ngini = 0.1\nsamples = 3059\nvalue = [2906, 153]", fillcolor="#e58139f2"] ;
68 -> 69 ;
70 [label="X[78] <= 0.5\ngini = 0.09\nsamples = 3056\nvalue = [2904, 152]", fillcolor="#e58139f2"] ;
69 -> 70 ;
71 [label="X[1213] <= 0.5\ngini = 0.09\nsamples = 3053\nvalue = [2902, 151]", fillcolor="#e58139f2"] ;
70 -> 71 ;
72 [label="X[606] <= 0.5\ngini = 0.09\nsamples = 3050\nvalue = [2900, 150]", fillcolor="#e58139f2"] ;
71 -> 72 ;
73 [label="X[28] <= 0.5\ngini = 0.09\nsamples = 2996\nvalue = [2852, 144]", fillcolor="#e58139f2"] ;
72 -> 73 ;
74 [label="X[1145] <= 0.5\ngini = 0.09\nsamples = 2928\nvalue = [2791, 137]", fillcolor="#e58139f2"] ;
73 -> 74 ;
75 [label="X[1078] <= 0.5\ngini = 0.09\nsamples = 2917\nvalue = [2782, 135]", fillcolor="#e58139f3"] ;
74 -> 75 ;
76 [label="X[837] <= 0.5\ngini = 0.09\nsamples = 2818\nvalue = [2692, 126]", fillcolor="#e58139f3"] ;
75 -> 76 ;
77 [label="X[1340] <= 0.5\ngini = 0.08\nsamples = 2784\nvalue = [2662, 122]", fillcolor="#e58139f3"] ;
76 -> 77 ;
78 [label="X[1100] <= 0.5\ngini = 0.08\nsamples = 2711\nvalue = [2596, 115]", fillcolor="#e58139f4"] ;
77 -> 78 ;
79 [label="X[531] <= 0.5\ngini = 0.08\nsamples = 2666\nvalue = [2556, 110]", fillcolor="#e58139f4"] ;
78 -> 79 ;
80 [label="X[954] <= 0.5\ngini = 0.08\nsamples = 2662\nvalue = [2553, 109]", fillcolor="#e58139f4"] ;
79 -> 80 ;
81 [label="X[603] <= 0.5\ngini = 0.08\nsamples = 2658\nvalue = [2550, 108]", fillcolor="#e58139f4"] ;
80 -> 81 ;
82 [label="X[666] <= 0.5\ngini = 0.08\nsamples = 2654\nvalue = [2547, 107]", fillcolor="#e58139f4"] ;
81 -> 82 ;
83 [label="X[461] <= 0.5\ngini = 0.08\nsamples = 2650\nvalue = [2544, 106]", fillcolor="#e58139f4"] ;
82 -> 83 ;
84 [label="X[1114] <= 0.5\ngini = 0.08\nsamples = 2646\nvalue = [2541, 105]", fillcolor="#e58139f4"] ;
83 -> 84 ;
85 [label="X[577] <= 0.5\ngini = 0.08\nsamples = 2633\nvalue = [2530, 103]", fillcolor="#e58139f5"] ;
84 -> 85 ;
86 [label="X[245] <= 0.5\ngini = 0.07\nsamples = 2619\nvalue = [2518, 101]", fillcolor="#e58139f5"] ;
85 -> 86 ;
87 [label="X[1129] <= 0.5\ngini = 0.07\nsamples = 2614\nvalue = [2514, 100]", fillcolor="#e58139f5"] ;
86 -> 87 ;
88 [label="X[91] <= 0.5\ngini = 0.07\nsamples = 2609\nvalue = [2510, 99]", fillcolor="#e58139f5"] ;
87 -> 88 ;
89 [label="X[282] <= 0.5\ngini = 0.07\nsamples = 2604\nvalue = [2506, 98]", fillcolor="#e58139f5"] ;
88 -> 89 ;
90 [label="X[1082] <= 0.5\ngini = 0.07\nsamples = 2599\nvalue = [2502, 97]", fillcolor="#e58139f5"] ;
89 -> 90 ;
91 [label="X[1143] <= 0.5\ngini = 0.07\nsamples = 2539\nvalue = [2447, 92]", fillcolor="#e58139f5"] ;
90 -> 91 ;
92 [label="X[667] <= 0.5\ngini = 0.07\nsamples = 2509\nvalue = [2420, 89]", fillcolor="#e58139f6"] ;
91 -> 92 ;
93 [label="X[852] <= 0.5\ngini = 0.07\nsamples = 2492\nvalue = [2405, 87]", fillcolor="#e58139f6"] ;
92 -> 93 ;
94 [label="X[537] <= 0.5\ngini = 0.07\nsamples = 2475\nvalue = [2390, 85]", fillcolor="#e58139f6"] ;
93 -> 94 ;
95 [label="X[311] <= 0.5\ngini = 0.06\nsamples = 2370\nvalue = [2292, 78]", fillcolor="#e58139f6"] ;
94 -> 95 ;
96 [label="X[512] <= 0.5\ngini = 0.06\nsamples = 2338\nvalue = [2263, 75]", fillcolor="#e58139f7"] ;
95 -> 96 ;
97 [label="X[1088] <= 0.5\ngini = 0.06\nsamples = 2320\nvalue = [2247, 73]", fillcolor="#e58139f7"] ;
96 -> 97 ;
98 [label="X[1084] <= 0.5\ngini = 0.06\nsamples = 2314\nvalue = [2242, 72]", fillcolor="#e58139f7"] ;
97 -> 98 ;
99 [label="X[307] <= 0.5\ngini = 0.06\nsamples = 2308\nvalue = [2237, 71]", fillcolor="#e58139f7"] ;
98 -> 99 ;
100 [label="X[694] <= 0.5\ngini = 0.06\nsamples = 2302\nvalue = [2232, 70]", fillcolor="#e58139f7"] ;
99 -> 100 ;
101 [label="X[308] <= 0.5\ngini = 0.06\nsamples = 2208\nvalue = [2144, 64]", fillcolor="#e58139f7"] ;
100 -> 101 ;
102 [label="X[1338] <= 0.5\ngini = 0.05\nsamples = 2173\nvalue = [2112, 61]", fillcolor="#e58139f8"] ;
101 -> 102 ;
103 [label="X[1246] <= 0.5\ngini = 0.05\nsamples = 2075\nvalue = [2020, 55]", fillcolor="#e58139f8"] ;
102 -> 103 ;
104 [label="X[787] <= 0.5\ngini = 0.05\nsamples = 2040\nvalue = [1988, 52]", fillcolor="#e58139f8"] ;
103 -> 104 ;
105 [label="X[510] <= 0.5\ngini = 0.05\nsamples = 2034\nvalue = [1983, 51]", fillcolor="#e58139f8"] ;
104 -> 105 ;
106 [label="X[103] <= 0.5\ngini = 0.05\nsamples = 2027\nvalue = [1977, 50]", fillcolor="#e58139f9"] ;
105 -> 106 ;
107 [label="X[544] <= 0.5\ngini = 0.05\nsamples = 2020\nvalue = [1971, 49]", fillcolor="#e58139f9"] ;
106 -> 107 ;
108 [label="X[853] <= 0.5\ngini = 0.04\nsamples = 1930\nvalue = [1886, 44]", fillcolor="#e58139f9"] ;
107 -> 108 ;
109 [label="X[831] <= 0.5\ngini = 0.04\nsamples = 1885\nvalue = [1844, 41]", fillcolor="#e58139f9"] ;
108 -> 109 ;
110 [label="X[651] <= 0.5\ngini = 0.04\nsamples = 1877\nvalue = [1837, 40]", fillcolor="#e58139f9"] ;
109 -> 110 ;
111 [label="X[1089] <= 0.5\ngini = 0.04\nsamples = 1745\nvalue = [1711, 34]", fillcolor="#e58139fa"] ;
110 -> 111 ;
112 [label="X[1027] <= 0.5\ngini = 0.04\nsamples = 1736\nvalue = [1703, 33]", fillcolor="#e58139fa"] ;
111 -> 112 ;
113 [label="X[685] <= 0.5\ngini = 0.04\nsamples = 1727\nvalue = [1695, 32]", fillcolor="#e58139fa"] ;
112 -> 113 ;
114 [label="X[27] <= 0.5\ngini = 0.04\nsamples = 1718\nvalue = [1687, 31]", fillcolor="#e58139fa"] ;
113 -> 114 ;
115 [label="X[581] <= 0.5\ngini = 0.03\nsamples = 1560\nvalue = [1535, 25]", fillcolor="#e58139fb"] ;
114 -> 115 ;
116 [label="X[1105] <= 0.5\ngini = 0.03\nsamples = 1550\nvalue = [1526, 24]", fillcolor="#e58139fb"] ;
115 -> 116 ;
117 [label="X[1215] <= 0.5\ngini = 0.03\nsamples = 1540\nvalue = [1517, 23]", fillcolor="#e58139fb"] ;
116 -> 117 ;
118 [label="X[506] <= 0.5\ngini = 0.03\nsamples = 1529\nvalue = [1507, 22]", fillcolor="#e58139fb"] ;
117 -> 118 ;
119 [label="X[674] <= 0.5\ngini = 0.03\nsamples = 1459\nvalue = [1440, 19]", fillcolor="#e58139fc"] ;
118 -> 119 ;
120 [label="X[698] <= 0.5\ngini = 0.02\nsamples = 1447\nvalue = [1429, 18]", fillcolor="#e58139fc"] ;
119 -> 120 ;
121 [label="X[622] <= 0.5\ngini = 0.02\nsamples = 1435\nvalue = [1418, 17]", fillcolor="#e58139fc"] ;
120 -> 121 ;
122 [label="X[1206] <= 0.5\ngini = 0.02\nsamples = 1422\nvalue = [1406, 16]", fillcolor="#e58139fc"] ;
121 -> 122 ;
123 [label="X[1119] <= 0.5\ngini = 0.02\nsamples = 1409\nvalue = [1394, 15]", fillcolor="#e58139fc"] ;
122 -> 123 ;
124 [label="X[29] <= 0.5\ngini = 0.02\nsamples = 1280\nvalue = [1269, 11]", fillcolor="#e58139fd"] ;
123 -> 124 ;
125 [label="X[538] <= 0.5\ngini = 0.01\nsamples = 1192\nvalue = [1184, 8]", fillcolor="#e58139fd"] ;
124 -> 125 ;
126 [label="X[1120] <= 0.5\ngini = 0.01\nsamples = 1177\nvalue = [1170, 7]", fillcolor="#e58139fd"] ;
125 -> 126 ;
127 [label="X[543] <= 0.5\ngini = 0.01\nsamples = 1162\nvalue = [1156, 6]", fillcolor="#e58139fe"] ;
126 -> 127 ;
128 [label="X[81] <= 0.5\ngini = 0.01\nsamples = 1142\nvalue = [1137, 5]", fillcolor="#e58139fe"] ;
127 -> 128 ;
129 [label="X[1342] <= 0.5\ngini = 0.01\nsamples = 1070\nvalue = [1067, 3]", fillcolor="#e58139fe"] ;
128 -> 129 ;
130 [label="X[653] <= 0.5\ngini = 0.0\nsamples = 1049\nvalue = [1047, 2]", fillcolor="#e58139ff"] ;
129 -> 130 ;
131 [label="X[1149] <= 0.5\ngini = 0.0\nsamples = 1026\nvalue = [1025, 1]", fillcolor="#e58139ff"] ;
130 -> 131 ;
132 [label="gini = 0.0\nsamples = 995\nvalue = [995, 0]", fillcolor="#e58139ff"] ;
131 -> 132 ;
133 [label="X[6] <= 0.5\ngini = 0.06\nsamples = 31\nvalue = [30, 1]", fillcolor="#e58139f6"] ;
131 -> 133 ;
134 [label="gini = 0.0\nsamples = 26\nvalue = [26, 0]", fillcolor="#e58139ff"] ;
133 -> 134 ;
135 [label="X[15] <= 0.5\ngini = 0.32\nsamples = 5\nvalue = [4, 1]", fillcolor="#e58139bf"] ;
133 -> 135 ;
136 [label="gini = 0.38\nsamples = 4\nvalue = [3, 1]", fillcolor="#e58139aa"] ;
135 -> 136 ;
137 [label="gini = 0.0\nsamples = 1\nvalue = [1, 0]", fillcolor="#e58139ff"] ;
135 -> 137 ;
138 [label="X[6] <= 0.5\ngini = 0.08\nsamples = 23\nvalue = [22, 1]", fillcolor="#e58139f3"] ;
130 -> 138 ;
139 [label="gini = 0.0\nsamples = 21\nvalue = [21, 0]", fillcolor="#e58139ff"] ;
138 -> 139 ;
140 [label="X[12] <= 0.5\ngini = 0.5\nsamples = 2\nvalue = [1, 1]", fillcolor="#e5813900"] ;
138 -> 140 ;
141 [label="gini = 0.0\nsamples = 1\nvalue = [1, 0]", fillcolor="#e58139ff"] ;
140 -> 141 ;
142 [label="gini = 0.0\nsamples = 1\nvalue = [0, 1]", fillcolor="#399de5ff"] ;
140 -> 142 ;
143 [label="X[1152] <= 0.5\ngini = 0.09\nsamples = 21\nvalue = [20, 1]", fillcolor="#e58139f2"] ;
129 -> 143 ;
144 [label="gini = 0.0\nsamples = 19\nvalue = [19, 0]", fillcolor="#e58139ff"] ;
143 -> 144 ;
145 [label="X[5] <= 0.5\ngini = 0.5\nsamples = 2\nvalue = [1, 1]", fillcolor="#e5813900"] ;
143 -> 145 ;
146 [label="gini = 0.0\nsamples = 1\nvalue = [1, 0]", fillcolor="#e58139ff"] ;
145 -> 146 ;
147 [label="gini = 0.0\nsamples = 1\nvalue = [0, 1]", fillcolor="#399de5ff"] ;
145 -> 147 ;
148 [label="X[1332] <= 0.5\ngini = 0.05\nsamples = 72\nvalue = [70, 2]", fillcolor="#e58139f8"] ;
128 -> 148 ;
149 [label="gini = 0.0\nsamples = 51\nvalue = [51, 0]", fillcolor="#e58139ff"] ;
148 -> 149 ;
150 [label="X[12] <= 0.5\ngini = 0.17\nsamples = 21\nvalue = [19, 2]", fillcolor="#e58139e4"] ;
148 -> 150 ;
151 [label="X[5] <= 0.5\ngini = 0.09\nsamples = 20\nvalue = [19, 1]", fillcolor="#e58139f2"] ;
150 -> 151 ;
152 [label="gini = 0.0\nsamples = 16\nvalue = [16, 0]", fillcolor="#e58139ff"] ;
151 -> 152 ;
153 [label="X[1329] <= 0.5\ngini = 0.38\nsamples = 4\nvalue = [3, 1]", fillcolor="#e58139aa"] ;
151 -> 153 ;
154 [label="gini = 0.0\nsamples = 2\nvalue = [2, 0]", fillcolor="#e58139ff"] ;
153 -> 154 ;
155 [label="gini = 0.5\nsamples = 2\nvalue = [1, 1]", fillcolor="#e5813900"] ;
153 -> 155 ;
156 [label="gini = 0.0\nsamples = 1\nvalue = [0, 1]", fillcolor="#399de5ff"] ;
150 -> 156 ;
157 [label="X[1333] <= 0.5\ngini = 0.09\nsamples = 20\nvalue = [19, 1]", fillcolor="#e58139f2"] ;
127 -> 157 ;
158 [label="gini = 0.0\nsamples = 16\nvalue = [16, 0]", fillcolor="#e58139ff"] ;
157 -> 158 ;
159 [label="X[8] <= 0.5\ngini = 0.38\nsamples = 4\nvalue = [3, 1]", fillcolor="#e58139aa"] ;
157 -> 159 ;
160 [label="gini = 0.0\nsamples = 2\nvalue = [2, 0]", fillcolor="#e58139ff"] ;
159 -> 160 ;
161 [label="gini = 0.5\nsamples = 2\nvalue = [1, 1]", fillcolor="#e5813900"] ;
159 -> 161 ;
162 [label="X[4] <= 0.5\ngini = 0.12\nsamples = 15\nvalue = [14, 1]", fillcolor="#e58139ed"] ;
126 -> 162 ;
163 [label="gini = 0.0\nsamples = 13\nvalue = [13, 0]", fillcolor="#e58139ff"] ;
162 -> 163 ;
164 [label="X[1332] <= 0.5\ngini = 0.5\nsamples = 2\nvalue = [1, 1]", fillcolor="#e5813900"] ;
162 -> 164 ;
165 [label="gini = 0.0\nsamples = 1\nvalue = [1, 0]", fillcolor="#e58139ff"] ;
164 -> 165 ;
166 [label="gini = 0.0\nsamples = 1\nvalue = [0, 1]", fillcolor="#399de5ff"] ;
164 -> 166 ;
167 [label="X[1333] <= 0.5\ngini = 0.12\nsamples = 15\nvalue = [14, 1]", fillcolor="#e58139ed"] ;
125 -> 167 ;
168 [label="gini = 0.0\nsamples = 13\nvalue = [13, 0]", fillcolor="#e58139ff"] ;
167 -> 168 ;
169 [label="X[8] <= 0.5\ngini = 0.5\nsamples = 2\nvalue = [1, 1]", fillcolor="#e5813900"] ;
167 -> 169 ;
170 [label="gini = 0.0\nsamples = 1\nvalue = [1, 0]", fillcolor="#e58139ff"] ;
169 -> 170 ;
171 [label="gini = 0.0\nsamples = 1\nvalue = [0, 1]", fillcolor="#399de5ff"] ;
169 -> 171 ;
172 [label="X[3] <= 0.5\ngini = 0.07\nsamples = 88\nvalue = [85, 3]", fillcolor="#e58139f6"] ;
124 -> 172 ;
173 [label="X[12] <= 0.5\ngini = 0.05\nsamples = 84\nvalue = [82, 2]", fillcolor="#e58139f9"] ;
172 -> 173 ;
174 [label="X[1335] <= 0.5\ngini = 0.03\nsamples = 78\nvalue = [77, 1]", fillcolor="#e58139fc"] ;
173 -> 174 ;
175 [label="gini = 0.0\nsamples = 69\nvalue = [69, 0]", fillcolor="#e58139ff"] ;
174 -> 175 ;
176 [label="X[13] <= 0.5\ngini = 0.2\nsamples = 9\nvalue = [8, 1]", fillcolor="#e58139df"] ;
174 -> 176 ;
177 [label="X[17] <= 0.5\ngini = 0.44\nsamples = 3\nvalue = [2, 1]", fillcolor="#e581397f"] ;
176 -> 177 ;
178 [label="gini = 0.0\nsamples = 1\nvalue = [0, 1]", fillcolor="#399de5ff"] ;
177 -> 178 ;
179 [label="gini = 0.0\nsamples = 2\nvalue = [2, 0]", fillcolor="#e58139ff"] ;
177 -> 179 ;
180 [label="gini = 0.0\nsamples = 6\nvalue = [6, 0]", fillcolor="#e58139ff"] ;
176 -> 180 ;
181 [label="X[1331] <= 0.5\ngini = 0.28\nsamples = 6\nvalue = [5, 1]", fillcolor="#e58139cc"] ;
173 -> 181 ;
182 [label="gini = 0.0\nsamples = 5\nvalue = [5, 0]", fillcolor="#e58139ff"] ;
181 -> 182 ;
183 [label="gini = 0.0\nsamples = 1\nvalue = [0, 1]", fillcolor="#399de5ff"] ;
181 -> 183 ;
184 [label="X[1333] <= 0.5\ngini = 0.38\nsamples = 4\nvalue = [3, 1]", fillcolor="#e58139aa"] ;
172 -> 184 ;
185 [label="gini = 0.0\nsamples = 3\nvalue = [3, 0]", fillcolor="#e58139ff"] ;
184 -> 185 ;
186 [label="gini = 0.0\nsamples = 1\nvalue = [0, 1]", fillcolor="#399de5ff"] ;
184 -> 186 ;
187 [label="X[1332] <= 0.5\ngini = 0.06\nsamples = 129\nvalue = [125, 4]", fillcolor="#e58139f7"] ;
123 -> 187 ;
188 [label="X[1333] <= 0.5\ngini = 0.02\nsamples = 88\nvalue = [87, 1]", fillcolor="#e58139fc"] ;
187 -> 188 ;
189 [label="gini = 0.0\nsamples = 68\nvalue = [68, 0]", fillcolor="#e58139ff"] ;
188 -> 189 ;
190 [label="X[3] <= 0.5\ngini = 0.09\nsamples = 20\nvalue = [19, 1]", fillcolor="#e58139f2"] ;
188 -> 190 ;
191 [label="gini = 0.0\nsamples = 5\nvalue = [5, 0]", fillcolor="#e58139ff"] ;
190 -> 191 ;
192 [label="X[17] <= 0.5\ngini = 0.12\nsamples = 15\nvalue = [14, 1]", fillcolor="#e58139ed"] ;
190 -> 192 ;
193 [label="gini = 0.0\nsamples = 1\nvalue = [1, 0]", fillcolor="#e58139ff"] ;
192 -> 193 ;
194 [label="gini = 0.13\nsamples = 14\nvalue = [13, 1]", fillcolor="#e58139eb"] ;
192 -> 194 ;
195 [label="X[1329] <= 0.5\ngini = 0.14\nsamples = 41\nvalue = [38, 3]", fillcolor="#e58139eb"] ;
187 -> 195 ;
196 [label="X[13] <= 0.5\ngini = 0.44\nsamples = 3\nvalue = [2, 1]", fillcolor="#e581397f"] ;
195 -> 196 ;
197 [label="X[4] <= 0.5\ngini = 0.5\nsamples = 2\nvalue = [1, 1]", fillcolor="#e5813900"] ;
196 -> 197 ;
198 [label="gini = 0.0\nsamples = 1\nvalue = [0, 1]", fillcolor="#399de5ff"] ;
197 -> 198 ;
199 [label="gini = 0.0\nsamples = 1\nvalue = [1, 0]", fillcolor="#e58139ff"] ;
197 -> 199 ;
200 [label="gini = 0.0\nsamples = 1\nvalue = [1, 0]", fillcolor="#e58139ff"] ;
196 -> 200 ;
201 [label="X[3] <= 0.5\ngini = 0.1\nsamples = 38\nvalue = [36, 2]", fillcolor="#e58139f1"] ;
195 -> 201 ;
202 [label="gini = 0.0\nsamples = 8\nvalue = [8, 0]", fillcolor="#e58139ff"] ;
201 -> 202 ;
203 [label="X[17] <= 0.5\ngini = 0.12\nsamples = 30\nvalue = [28, 2]", fillcolor="#e58139ed"] ;
201 -> 203 ;
204 [label="gini = 0.0\nsamples = 3\nvalue = [3, 0]", fillcolor="#e58139ff"] ;
203 -> 204 ;
205 [label="gini = 0.14\nsamples = 27\nvalue = [25, 2]", fillcolor="#e58139eb"] ;
203 -> 205 ;
206 [label="X[4] <= 0.5\ngini = 0.14\nsamples = 13\nvalue = [12, 1]", fillcolor="#e58139ea"] ;
122 -> 206 ;
207 [label="gini = 0.0\nsamples = 9\nvalue = [9, 0]", fillcolor="#e58139ff"] ;
206 -> 207 ;
208 [label="X[18] <= 0.5\ngini = 0.38\nsamples = 4\nvalue = [3, 1]", fillcolor="#e58139aa"] ;
206 -> 208 ;
209 [label="X[1333] <= 0.5\ngini = 0.5\nsamples = 2\nvalue = [1, 1]", fillcolor="#e5813900"] ;
208 -> 209 ;
210 [label="gini = 0.0\nsamples = 1\nvalue = [1, 0]", fillcolor="#e58139ff"] ;
209 -> 210 ;
211 [label="gini = 0.0\nsamples = 1\nvalue = [0, 1]", fillcolor="#399de5ff"] ;
209 -> 211 ;
212 [label="gini = 0.0\nsamples = 2\nvalue = [2, 0]", fillcolor="#e58139ff"] ;
208 -> 212 ;
213 [label="X[4] <= 0.5\ngini = 0.14\nsamples = 13\nvalue = [12, 1]", fillcolor="#e58139ea"] ;
121 -> 213 ;
214 [label="gini = 0.0\nsamples = 10\nvalue = [10, 0]", fillcolor="#e58139ff"] ;
213 -> 214 ;
215 [label="X[1332] <= 0.5\ngini = 0.44\nsamples = 3\nvalue = [2, 1]", fillcolor="#e581397f"] ;
213 -> 215 ;
216 [label="gini = 0.0\nsamples = 2\nvalue = [2, 0]", fillcolor="#e58139ff"] ;
215 -> 216 ;
217 [label="gini = 0.0\nsamples = 1\nvalue = [0, 1]", fillcolor="#399de5ff"] ;
215 -> 217 ;
218 [label="X[1330] <= 0.5\ngini = 0.15\nsamples = 12\nvalue = [11, 1]", fillcolor="#e58139e8"] ;
120 -> 218 ;
219 [label="gini = 0.0\nsamples = 11\nvalue = [11, 0]", fillcolor="#e58139ff"] ;
218 -> 219 ;
220 [label="gini = 0.0\nsamples = 1\nvalue = [0, 1]", fillcolor="#399de5ff"] ;
218 -> 220 ;
221 [label="X[1334] <= 0.5\ngini = 0.15\nsamples = 12\nvalue = [11, 1]", fillcolor="#e58139e8"] ;
119 -> 221 ;
222 [label="gini = 0.0\nsamples = 11\nvalue = [11, 0]", fillcolor="#e58139ff"] ;
221 -> 222 ;
223 [label="gini = 0.0\nsamples = 1\nvalue = [0, 1]", fillcolor="#399de5ff"] ;
221 -> 223 ;
224 [label="X[15] <= 0.5\ngini = 0.08\nsamples = 70\nvalue = [67, 3]", fillcolor="#e58139f4"] ;
118 -> 224 ;
225 [label="X[4] <= 0.5\ngini = 0.04\nsamples = 48\nvalue = [47, 1]", fillcolor="#e58139fa"] ;
224 -> 225 ;
226 [label="gini = 0.0\nsamples = 42\nvalue = [42, 0]", fillcolor="#e58139ff"] ;
225 -> 226 ;
227 [label="X[1333] <= 0.5\ngini = 0.28\nsamples = 6\nvalue = [5, 1]", fillcolor="#e58139cc"] ;
225 -> 227 ;
228 [label="gini = 0.0\nsamples = 4\nvalue = [4, 0]", fillcolor="#e58139ff"] ;
227 -> 228 ;
229 [label="gini = 0.5\nsamples = 2\nvalue = [1, 1]", fillcolor="#e5813900"] ;
227 -> 229 ;
230 [label="X[17] <= 0.5\ngini = 0.17\nsamples = 22\nvalue = [20, 2]", fillcolor="#e58139e6"] ;
224 -> 230 ;
231 [label="X[1330] <= 0.5\ngini = 0.5\nsamples = 2\nvalue = [1, 1]", fillcolor="#e5813900"] ;
230 -> 231 ;
232 [label="gini = 0.0\nsamples = 1\nvalue = [0, 1]", fillcolor="#399de5ff"] ;
231 -> 232 ;
233 [label="gini = 0.0\nsamples = 1\nvalue = [1, 0]", fillcolor="#e58139ff"] ;
231 -> 233 ;
234 [label="X[8] <= 0.5\ngini = 0.09\nsamples = 20\nvalue = [19, 1]", fillcolor="#e58139f2"] ;
230 -> 234 ;
235 [label="gini = 0.0\nsamples = 18\nvalue = [18, 0]", fillcolor="#e58139ff"] ;
234 -> 235 ;
236 [label="X[1333] <= 0.5\ngini = 0.5\nsamples = 2\nvalue = [1, 1]", fillcolor="#e5813900"] ;
234 -> 236 ;
237 [label="gini = 0.0\nsamples = 1\nvalue = [0, 1]", fillcolor="#399de5ff"] ;
236 -> 237 ;
238 [label="gini = 0.0\nsamples = 1\nvalue = [1, 0]", fillcolor="#e58139ff"] ;
236 -> 238 ;
239 [label="X[1330] <= 0.5\ngini = 0.17\nsamples = 11\nvalue = [10, 1]", fillcolor="#e58139e6"] ;
117 -> 239 ;
240 [label="gini = 0.0\nsamples = 10\nvalue = [10, 0]", fillcolor="#e58139ff"] ;
239 -> 240 ;
241 [label="gini = 0.0\nsamples = 1\nvalue = [0, 1]", fillcolor="#399de5ff"] ;
239 -> 241 ;
242 [label="X[1332] <= 0.5\ngini = 0.18\nsamples = 10\nvalue = [9, 1]", fillcolor="#e58139e3"] ;
116 -> 242 ;
243 [label="gini = 0.0\nsamples = 9\nvalue = [9, 0]", fillcolor="#e58139ff"] ;
242 -> 243 ;
244 [label="gini = 0.0\nsamples = 1\nvalue = [0, 1]", fillcolor="#399de5ff"] ;
242 -> 244 ;
245 [label="X[1334] <= 0.5\ngini = 0.18\nsamples = 10\nvalue = [9, 1]", fillcolor="#e58139e3"] ;
115 -> 245 ;
246 [label="gini = 0.0\nsamples = 7\nvalue = [7, 0]", fillcolor="#e58139ff"] ;
245 -> 246 ;
247 [label="X[6] <= 0.5\ngini = 0.44\nsamples = 3\nvalue = [2, 1]", fillcolor="#e581397f"] ;
245 -> 247 ;
248 [label="gini = 0.0\nsamples = 2\nvalue = [2, 0]", fillcolor="#e58139ff"] ;
247 -> 248 ;
249 [label="gini = 0.0\nsamples = 1\nvalue = [0, 1]", fillcolor="#399de5ff"] ;
247 -> 249 ;
250 [label="X[4] <= 0.5\ngini = 0.07\nsamples = 158\nvalue = [152, 6]", fillcolor="#e58139f5"] ;
114 -> 250 ;
251 [label="X[1337] <= 0.5\ngini = 0.05\nsamples = 146\nvalue = [142, 4]", fillcolor="#e58139f8"] ;
250 -> 251 ;
252 [label="X[2] <= 0.5\ngini = 0.04\nsamples = 142\nvalue = [139, 3]", fillcolor="#e58139f9"] ;
251 -> 252 ;
253 [label="X[1332] <= 0.5\ngini = 0.03\nsamples = 129\nvalue = [127, 2]", fillcolor="#e58139fb"] ;
252 -> 253 ;
254 [label="gini = 0.0\nsamples = 86\nvalue = [86, 0]", fillcolor="#e58139ff"] ;
253 -> 254 ;
255 [label="X[12] <= 0.5\ngini = 0.09\nsamples = 43\nvalue = [41, 2]", fillcolor="#e58139f3"] ;
253 -> 255 ;
256 [label="X[5] <= 0.5\ngini = 0.05\nsamples = 38\nvalue = [37, 1]", fillcolor="#e58139f8"] ;
255 -> 256 ;
257 [label="gini = 0.0\nsamples = 30\nvalue = [30, 0]", fillcolor="#e58139ff"] ;
256 -> 257 ;
258 [label="X[13] <= 0.5\ngini = 0.22\nsamples = 8\nvalue = [7, 1]", fillcolor="#e58139db"] ;
256 -> 258 ;
259 [label="gini = 0.0\nsamples = 4\nvalue = [4, 0]", fillcolor="#e58139ff"] ;
258 -> 259 ;
260 [label="X[1329] <= 0.5\ngini = 0.38\nsamples = 4\nvalue = [3, 1]", fillcolor="#e58139aa"] ;
258 -> 260 ;
261 [label="gini = 0.0\nsamples = 1\nvalue = [1, 0]", fillcolor="#e58139ff"] ;
260 -> 261 ;
262 [label="gini = 0.44\nsamples = 3\nvalue = [2, 1]", fillcolor="#e581397f"] ;
260 -> 262 ;
263 [label="X[17] <= 0.5\ngini = 0.32\nsamples = 5\nvalue = [4, 1]", fillcolor="#e58139bf"] ;
255 -> 263 ;
264 [label="gini = 0.0\nsamples = 4\nvalue = [4, 0]", fillcolor="#e58139ff"] ;
263 -> 264 ;
265 [label="gini = 0.0\nsamples = 1\nvalue = [0, 1]", fillcolor="#399de5ff"] ;
263 -> 265 ;
266 [label="X[1331] <= 0.5\ngini = 0.14\nsamples = 13\nvalue = [12, 1]", fillcolor="#e58139ea"] ;
252 -> 266 ;
267 [label="gini = 0.0\nsamples = 9\nvalue = [9, 0]", fillcolor="#e58139ff"] ;
266 -> 267 ;
268 [label="X[17] <= 0.5\ngini = 0.38\nsamples = 4\nvalue = [3, 1]", fillcolor="#e58139aa"] ;
266 -> 268 ;
269 [label="gini = 0.0\nsamples = 2\nvalue = [2, 0]", fillcolor="#e58139ff"] ;
268 -> 269 ;
270 [label="gini = 0.5\nsamples = 2\nvalue = [1, 1]", fillcolor="#e5813900"] ;
268 -> 270 ;
271 [label="X[15] <= 0.5\ngini = 0.38\nsamples = 4\nvalue = [3, 1]", fillcolor="#e58139aa"] ;
251 -> 271 ;
272 [label="gini = 0.0\nsamples = 3\nvalue = [3, 0]", fillcolor="#e58139ff"] ;
271 -> 272 ;
273 [label="gini = 0.0\nsamples = 1\nvalue = [0, 1]", fillcolor="#399de5ff"] ;
271 -> 273 ;
274 [label="X[18] <= 0.5\ngini = 0.28\nsamples = 12\nvalue = [10, 2]", fillcolor="#e58139cc"] ;
250 -> 274 ;
275 [label="X[1334] <= 0.5\ngini = 0.41\nsamples = 7\nvalue = [5, 2]", fillcolor="#e5813999"] ;
274 -> 275 ;
276 [label="X[1331] <= 0.5\ngini = 0.28\nsamples = 6\nvalue = [5, 1]", fillcolor="#e58139cc"] ;
275 -> 276 ;
277 [label="gini = 0.44\nsamples = 3\nvalue = [2, 1]", fillcolor="#e581397f"] ;
276 -> 277 ;
278 [label="gini = 0.0\nsamples = 3\nvalue = [3, 0]", fillcolor="#e58139ff"] ;
276 -> 278 ;
279 [label="gini = 0.0\nsamples = 1\nvalue = [0, 1]", fillcolor="#399de5ff"] ;
275 -> 279 ;
280 [label="gini = 0.0\nsamples = 5\nvalue = [5, 0]", fillcolor="#e58139ff"] ;
274 -> 280 ;
281 [label="X[4] <= 0.5\ngini = 0.2\nsamples = 9\nvalue = [8, 1]", fillcolor="#e58139df"] ;
113 -> 281 ;
282 [label="gini = 0.0\nsamples = 7\nvalue = [7, 0]", fillcolor="#e58139ff"] ;
281 -> 282 ;
283 [label="X[17] <= 0.5\ngini = 0.5\nsamples = 2\nvalue = [1, 1]", fillcolor="#e5813900"] ;
281 -> 283 ;
284 [label="gini = 0.0\nsamples = 1\nvalue = [0, 1]", fillcolor="#399de5ff"] ;
283 -> 284 ;
285 [label="gini = 0.0\nsamples = 1\nvalue = [1, 0]", fillcolor="#e58139ff"] ;
283 -> 285 ;
286 [label="X[1331] <= 0.5\ngini = 0.2\nsamples = 9\nvalue = [8, 1]", fillcolor="#e58139df"] ;
112 -> 286 ;
287 [label="gini = 0.0\nsamples = 8\nvalue = [8, 0]", fillcolor="#e58139ff"] ;
286 -> 287 ;
288 [label="gini = 0.0\nsamples = 1\nvalue = [0, 1]", fillcolor="#399de5ff"] ;
286 -> 288 ;
289 [label="X[1339] <= 0.5\ngini = 0.2\nsamples = 9\nvalue = [8, 1]", fillcolor="#e58139df"] ;
111 -> 289 ;
290 [label="gini = 0.0\nsamples = 8\nvalue = [8, 0]", fillcolor="#e58139ff"] ;
289 -> 290 ;
291 [label="gini = 0.0\nsamples = 1\nvalue = [0, 1]", fillcolor="#399de5ff"] ;
289 -> 291 ;
292 [label="X[6] <= 0.5\ngini = 0.09\nsamples = 132\nvalue = [126, 6]", fillcolor="#e58139f3"] ;
110 -> 292 ;
293 [label="X[1334] <= 0.5\ngini = 0.06\nsamples = 101\nvalue = [98, 3]", fillcolor="#e58139f7"] ;
292 -> 293 ;
294 [label="X[1329] <= 0.5\ngini = 0.02\nsamples = 79\nvalue = [78, 1]", fillcolor="#e58139fc"] ;
293 -> 294 ;
295 [label="X[1332] <= 0.5\ngini = 0.14\nsamples = 13\nvalue = [12, 1]", fillcolor="#e58139ea"] ;
294 -> 295 ;
296 [label="gini = 0.0\nsamples = 11\nvalue = [11, 0]", fillcolor="#e58139ff"] ;
295 -> 296 ;
297 [label="gini = 0.5\nsamples = 2\nvalue = [1, 1]", fillcolor="#e5813900"] ;
295 -> 297 ;
298 [label="gini = 0.0\nsamples = 66\nvalue = [66, 0]", fillcolor="#e58139ff"] ;
294 -> 298 ;
299 [label="X[18] <= 0.5\ngini = 0.17\nsamples = 22\nvalue = [20, 2]", fillcolor="#e58139e6"] ;
293 -> 299 ;
300 [label="X[5] <= 0.5\ngini = 0.32\nsamples = 10\nvalue = [8, 2]", fillcolor="#e58139bf"] ;
299 -> 300 ;
301 [label="X[9] <= 0.5\ngini = 0.22\nsamples = 8\nvalue = [7, 1]", fillcolor="#e58139db"] ;
300 -> 301 ;
302 [label="gini = 0.24\nsamples = 7\nvalue = [6, 1]", fillcolor="#e58139d4"] ;
301 -> 302 ;
303 [label="gini = 0.0\nsamples = 1\nvalue = [1, 0]", fillcolor="#e58139ff"] ;
301 -> 303 ;
304 [label="gini = 0.5\nsamples = 2\nvalue = [1, 1]", fillcolor="#e5813900"] ;
300 -> 304 ;
305 [label="gini = 0.0\nsamples = 12\nvalue = [12, 0]", fillcolor="#e58139ff"] ;
299 -> 305 ;
306 [label="X[1332] <= 0.5\ngini = 0.17\nsamples = 31\nvalue = [28, 3]", fillcolor="#e58139e4"] ;
292 -> 306 ;
307 [label="X[1335] <= 0.5\ngini = 0.09\nsamples = 20\nvalue = [19, 1]", fillcolor="#e58139f2"] ;
306 -> 307 ;
308 [label="gini = 0.0\nsamples = 16\nvalue = [16, 0]", fillcolor="#e58139ff"] ;
307 -> 308 ;
309 [label="X[13] <= 0.5\ngini = 0.38\nsamples = 4\nvalue = [3, 1]", fillcolor="#e58139aa"] ;
307 -> 309 ;
310 [label="gini = 0.0\nsamples = 3\nvalue = [3, 0]", fillcolor="#e58139ff"] ;
309 -> 310 ;
311 [label="gini = 0.0\nsamples = 1\nvalue = [0, 1]", fillcolor="#399de5ff"] ;
309 -> 311 ;
312 [label="X[12] <= 0.5\ngini = 0.3\nsamples = 11\nvalue = [9, 2]", fillcolor="#e58139c6"] ;
306 -> 312 ;
313 [label="X[15] <= 0.5\ngini = 0.2\nsamples = 9\nvalue = [8, 1]", fillcolor="#e58139df"] ;
312 -> 313 ;
314 [label="gini = 0.24\nsamples = 7\nvalue = [6, 1]", fillcolor="#e58139d4"] ;
313 -> 314 ;
315 [label="gini = 0.0\nsamples = 2\nvalue = [2, 0]", fillcolor="#e58139ff"] ;
313 -> 315 ;
316 [label="gini = 0.5\nsamples = 2\nvalue = [1, 1]", fillcolor="#e5813900"] ;
312 -> 316 ;
317 [label="X[1331] <= 0.5\ngini = 0.22\nsamples = 8\nvalue = [7, 1]", fillcolor="#e58139db"] ;
109 -> 317 ;
318 [label="gini = 0.0\nsamples = 6\nvalue = [6, 0]", fillcolor="#e58139ff"] ;
317 -> 318 ;
319 [label="X[12] <= 0.5\ngini = 0.5\nsamples = 2\nvalue = [1, 1]", fillcolor="#e5813900"] ;
317 -> 319 ;
320 [label="gini = 0.0\nsamples = 1\nvalue = [0, 1]", fillcolor="#399de5ff"] ;
319 -> 320 ;
321 [label="gini = 0.0\nsamples = 1\nvalue = [1, 0]", fillcolor="#e58139ff"] ;
319 -> 321 ;
322 [label="X[1349] <= 0.5\ngini = 0.12\nsamples = 45\nvalue = [42, 3]", fillcolor="#e58139ed"] ;
108 -> 322 ;
323 [label="X[15] <= 0.5\ngini = 0.09\nsamples = 44\nvalue = [42, 2]", fillcolor="#e58139f3"] ;
322 -> 323 ;
324 [label="X[1333] <= 0.5\ngini = 0.05\nsamples = 39\nvalue = [38, 1]", fillcolor="#e58139f8"] ;
323 -> 324 ;
325 [label="gini = 0.0\nsamples = 29\nvalue = [29, 0]", fillcolor="#e58139ff"] ;
324 -> 325 ;
326 [label="X[6] <= 0.5\ngini = 0.18\nsamples = 10\nvalue = [9, 1]", fillcolor="#e58139e3"] ;
324 -> 326 ;
327 [label="gini = 0.0\nsamples = 7\nvalue = [7, 0]", fillcolor="#e58139ff"] ;
326 -> 327 ;
328 [label="gini = 0.44\nsamples = 3\nvalue = [2, 1]", fillcolor="#e581397f"] ;
326 -> 328 ;
329 [label="X[17] <= 0.5\ngini = 0.32\nsamples = 5\nvalue = [4, 1]", fillcolor="#e58139bf"] ;
323 -> 329 ;
330 [label="gini = 0.0\nsamples = 1\nvalue = [0, 1]", fillcolor="#399de5ff"] ;
329 -> 330 ;
331 [label="gini = 0.0\nsamples = 4\nvalue = [4, 0]", fillcolor="#e58139ff"] ;
329 -> 331 ;
332 [label="gini = 0.0\nsamples = 1\nvalue = [0, 1]", fillcolor="#399de5ff"] ;
322 -> 332 ;
333 [label="X[1331] <= 0.5\ngini = 0.1\nsamples = 90\nvalue = [85, 5]", fillcolor="#e58139f0"] ;
107 -> 333 ;
334 [label="X[1337] <= 0.5\ngini = 0.05\nsamples = 73\nvalue = [71, 2]", fillcolor="#e58139f8"] ;
333 -> 334 ;
335 [label="gini = 0.0\nsamples = 60\nvalue = [60, 0]", fillcolor="#e58139ff"] ;
334 -> 335 ;
336 [label="X[1330] <= 0.5\ngini = 0.26\nsamples = 13\nvalue = [11, 2]", fillcolor="#e58139d1"] ;
334 -> 336 ;
337 [label="gini = 0.0\nsamples = 9\nvalue = [9, 0]", fillcolor="#e58139ff"] ;
336 -> 337 ;
338 [label="X[12] <= 0.5\ngini = 0.5\nsamples = 4\nvalue = [2, 2]", fillcolor="#e5813900"] ;
336 -> 338 ;
339 [label="gini = 0.0\nsamples = 2\nvalue = [0, 2]", fillcolor="#399de5ff"] ;
338 -> 339 ;
340 [label="gini = 0.0\nsamples = 2\nvalue = [2, 0]", fillcolor="#e58139ff"] ;
338 -> 340 ;
341 [label="X[17] <= 0.5\ngini = 0.29\nsamples = 17\nvalue = [14, 3]", fillcolor="#e58139c8"] ;
333 -> 341 ;
342 [label="gini = 0.0\nsamples = 7\nvalue = [7, 0]", fillcolor="#e58139ff"] ;
341 -> 342 ;
343 [label="X[1329] <= 0.5\ngini = 0.42\nsamples = 10\nvalue = [7, 3]", fillcolor="#e5813992"] ;
341 -> 343 ;
344 [label="gini = 0.0\nsamples = 1\nvalue = [1, 0]", fillcolor="#e58139ff"] ;
343 -> 344 ;
345 [label="X[6] <= 0.5\ngini = 0.44\nsamples = 9\nvalue = [6, 3]", fillcolor="#e581397f"] ;
343 -> 345 ;
346 [label="gini = 0.44\nsamples = 6\nvalue = [4, 2]", fillcolor="#e581397f"] ;
345 -> 346 ;
347 [label="gini = 0.44\nsamples = 3\nvalue = [2, 1]", fillcolor="#e581397f"] ;
345 -> 347 ;
348 [label="X[1343] <= 0.5\ngini = 0.24\nsamples = 7\nvalue = [6, 1]", fillcolor="#e58139d4"] ;
106 -> 348 ;
349 [label="gini = 0.0\nsamples = 6\nvalue = [6, 0]", fillcolor="#e58139ff"] ;
348 -> 349 ;
350 [label="gini = 0.0\nsamples = 1\nvalue = [0, 1]", fillcolor="#399de5ff"] ;
348 -> 350 ;
351 [label="X[1331] <= 0.5\ngini = 0.24\nsamples = 7\nvalue = [6, 1]", fillcolor="#e58139d4"] ;
105 -> 351 ;
352 [label="gini = 0.0\nsamples = 6\nvalue = [6, 0]", fillcolor="#e58139ff"] ;
351 -> 352 ;
353 [label="gini = 0.0\nsamples = 1\nvalue = [0, 1]", fillcolor="#399de5ff"] ;
351 -> 353 ;
354 [label="X[12] <= 0.5\ngini = 0.28\nsamples = 6\nvalue = [5, 1]", fillcolor="#e58139cc"] ;
104 -> 354 ;
355 [label="gini = 0.0\nsamples = 5\nvalue = [5, 0]", fillcolor="#e58139ff"] ;
354 -> 355 ;
356 [label="gini = 0.0\nsamples = 1\nvalue = [0, 1]", fillcolor="#399de5ff"] ;
354 -> 356 ;
357 [label="X[9] <= 0.5\ngini = 0.16\nsamples = 35\nvalue = [32, 3]", fillcolor="#e58139e7"] ;
103 -> 357 ;
358 [label="X[1333] <= 0.5\ngini = 0.07\nsamples = 26\nvalue = [25, 1]", fillcolor="#e58139f5"] ;
357 -> 358 ;
359 [label="gini = 0.0\nsamples = 20\nvalue = [20, 0]", fillcolor="#e58139ff"] ;
358 -> 359 ;
360 [label="X[4] <= 0.5\ngini = 0.28\nsamples = 6\nvalue = [5, 1]", fillcolor="#e58139cc"] ;
358 -> 360 ;
361 [label="gini = 0.0\nsamples = 3\nvalue = [3, 0]", fillcolor="#e58139ff"] ;
360 -> 361 ;
362 [label="X[13] <= 0.5\ngini = 0.44\nsamples = 3\nvalue = [2, 1]", fillcolor="#e581397f"] ;
360 -> 362 ;
363 [label="gini = 0.0\nsamples = 1\nvalue = [1, 0]", fillcolor="#e58139ff"] ;
362 -> 363 ;
364 [label="gini = 0.5\nsamples = 2\nvalue = [1, 1]", fillcolor="#e5813900"] ;
362 -> 364 ;
365 [label="X[1332] <= 0.5\ngini = 0.35\nsamples = 9\nvalue = [7, 2]", fillcolor="#e58139b6"] ;
357 -> 365 ;
366 [label="X[1330] <= 0.5\ngini = 0.24\nsamples = 7\nvalue = [6, 1]", fillcolor="#e58139d4"] ;
365 -> 366 ;
367 [label="gini = 0.0\nsamples = 3\nvalue = [3, 0]", fillcolor="#e58139ff"] ;
366 -> 367 ;
368 [label="gini = 0.38\nsamples = 4\nvalue = [3, 1]", fillcolor="#e58139aa"] ;
366 -> 368 ;
369 [label="X[18] <= 0.5\ngini = 0.5\nsamples = 2\nvalue = [1, 1]", fillcolor="#e5813900"] ;
365 -> 369 ;
370 [label="gini = 0.0\nsamples = 1\nvalue = [1, 0]", fillcolor="#e58139ff"] ;
369 -> 370 ;
371 [label="gini = 0.0\nsamples = 1\nvalue = [0, 1]", fillcolor="#399de5ff"] ;
369 -> 371 ;
372 [label="X[823] <= 0.5\ngini = 0.11\nsamples = 98\nvalue = [92, 6]", fillcolor="#e58139ee"] ;
102 -> 372 ;
373 [label="X[120] <= 0.5\ngini = 0.1\nsamples = 97\nvalue = [92, 5]", fillcolor="#e58139f1"] ;
372 -> 373 ;
374 [label="X[81] <= 0.5\ngini = 0.08\nsamples = 95\nvalue = [91, 4]", fillcolor="#e58139f4"] ;
373 -> 374 ;
375 [label="X[1119] <= 0.5\ngini = 0.06\nsamples = 93\nvalue = [90, 3]", fillcolor="#e58139f6"] ;
374 -> 375 ;
376 [label="X[1152] <= 0.5\ngini = 0.04\nsamples = 90\nvalue = [88, 2]", fillcolor="#e58139f9"] ;
375 -> 376 ;
377 [label="X[3] <= 0.5\ngini = 0.02\nsamples = 87\nvalue = [86, 1]", fillcolor="#e58139fc"] ;
376 -> 377 ;
378 [label="gini = 0.0\nsamples = 82\nvalue = [82, 0]", fillcolor="#e58139ff"] ;
377 -> 378 ;
379 [label="X[1329] <= 0.5\ngini = 0.32\nsamples = 5\nvalue = [4, 1]", fillcolor="#e58139bf"] ;
377 -> 379 ;
380 [label="gini = 0.0\nsamples = 1\nvalue = [1, 0]", fillcolor="#e58139ff"] ;
379 -> 380 ;
381 [label="gini = 0.38\nsamples = 4\nvalue = [3, 1]", fillcolor="#e58139aa"] ;
379 -> 381 ;
382 [label="X[13] <= 0.5\ngini = 0.44\nsamples = 3\nvalue = [2, 1]", fillcolor="#e581397f"] ;
376 -> 382 ;
383 [label="gini = 0.0\nsamples = 2\nvalue = [2, 0]", fillcolor="#e58139ff"] ;
382 -> 383 ;
384 [label="gini = 0.0\nsamples = 1\nvalue = [0, 1]", fillcolor="#399de5ff"] ;
382 -> 384 ;
385 [label="X[12] <= 0.5\ngini = 0.44\nsamples = 3\nvalue = [2, 1]", fillcolor="#e581397f"] ;
375 -> 385 ;
386 [label="gini = 0.0\nsamples = 2\nvalue = [2, 0]", fillcolor="#e58139ff"] ;
385 -> 386 ;
387 [label="gini = 0.0\nsamples = 1\nvalue = [0, 1]", fillcolor="#399de5ff"] ;
385 -> 387 ;
388 [label="X[2] <= 0.5\ngini = 0.5\nsamples = 2\nvalue = [1, 1]", fillcolor="#e5813900"] ;
374 -> 388 ;
389 [label="gini = 0.0\nsamples = 1\nvalue = [1, 0]", fillcolor="#e58139ff"] ;
388 -> 389 ;
390 [label="gini = 0.0\nsamples = 1\nvalue = [0, 1]", fillcolor="#399de5ff"] ;
388 -> 390 ;
391 [label="X[10] <= 0.5\ngini = 0.5\nsamples = 2\nvalue = [1, 1]", fillcolor="#e5813900"] ;
373 -> 391 ;
392 [label="gini = 0.0\nsamples = 1\nvalue = [0, 1]", fillcolor="#399de5ff"] ;
391 -> 392 ;
393 [label="gini = 0.0\nsamples = 1\nvalue = [1, 0]", fillcolor="#e58139ff"] ;
391 -> 393 ;
394 [label="gini = 0.0\nsamples = 1\nvalue = [0, 1]", fillcolor="#399de5ff"] ;
372 -> 394 ;
395 [label="X[1331] <= 0.5\ngini = 0.16\nsamples = 35\nvalue = [32, 3]", fillcolor="#e58139e7"] ;
101 -> 395 ;
396 [label="X[1333] <= 0.5\ngini = 0.12\nsamples = 31\nvalue = [29, 2]", fillcolor="#e58139ed"] ;
395 -> 396 ;
397 [label="X[1335] <= 0.5\ngini = 0.07\nsamples = 26\nvalue = [25, 1]", fillcolor="#e58139f5"] ;
396 -> 397 ;
398 [label="gini = 0.0\nsamples = 20\nvalue = [20, 0]", fillcolor="#e58139ff"] ;
397 -> 398 ;
399 [label="X[12] <= 0.5\ngini = 0.28\nsamples = 6\nvalue = [5, 1]", fillcolor="#e58139cc"] ;
397 -> 399 ;
400 [label="gini = 0.0\nsamples = 4\nvalue = [4, 0]", fillcolor="#e58139ff"] ;
399 -> 400 ;
401 [label="gini = 0.5\nsamples = 2\nvalue = [1, 1]", fillcolor="#e5813900"] ;
399 -> 401 ;
402 [label="X[15] <= 0.5\ngini = 0.32\nsamples = 5\nvalue = [4, 1]", fillcolor="#e58139bf"] ;
396 -> 402 ;
403 [label="gini = 0.0\nsamples = 3\nvalue = [3, 0]", fillcolor="#e58139ff"] ;
402 -> 403 ;
404 [label="gini = 0.5\nsamples = 2\nvalue = [1, 1]", fillcolor="#e5813900"] ;
402 -> 404 ;
405 [label="X[17] <= 0.5\ngini = 0.38\nsamples = 4\nvalue = [3, 1]", fillcolor="#e58139aa"] ;
395 -> 405 ;
406 [label="gini = 0.5\nsamples = 2\nvalue = [1, 1]", fillcolor="#e5813900"] ;
405 -> 406 ;
407 [label="gini = 0.0\nsamples = 2\nvalue = [2, 0]", fillcolor="#e58139ff"] ;
405 -> 407 ;
408 [label="X[1339] <= 0.5\ngini = 0.12\nsamples = 94\nvalue = [88, 6]", fillcolor="#e58139ee"] ;
100 -> 408 ;
409 [label="X[9] <= 0.5\ngini = 0.07\nsamples = 88\nvalue = [85, 3]", fillcolor="#e58139f6"] ;
408 -> 409 ;
410 [label="X[5] <= 0.5\ngini = 0.05\nsamples = 84\nvalue = [82, 2]", fillcolor="#e58139f9"] ;
409 -> 410 ;
411 [label="X[18] <= 0.5\ngini = 0.03\nsamples = 74\nvalue = [73, 1]", fillcolor="#e58139fc"] ;
410 -> 411 ;
412 [label="X[1334] <= 0.5\ngini = 0.12\nsamples = 16\nvalue = [15, 1]", fillcolor="#e58139ee"] ;
411 -> 412 ;
413 [label="gini = 0.0\nsamples = 11\nvalue = [11, 0]", fillcolor="#e58139ff"] ;
412 -> 413 ;
414 [label="X[6] <= 0.5\ngini = 0.32\nsamples = 5\nvalue = [4, 1]", fillcolor="#e58139bf"] ;
412 -> 414 ;
415 [label="gini = 0.0\nsamples = 3\nvalue = [3, 0]", fillcolor="#e58139ff"] ;
414 -> 415 ;
416 [label="X[1330] <= 0.5\ngini = 0.5\nsamples = 2\nvalue = [1, 1]", fillcolor="#e5813900"] ;
414 -> 416 ;
417 [label="gini = 0.0\nsamples = 1\nvalue = [0, 1]", fillcolor="#399de5ff"] ;
416 -> 417 ;
418 [label="gini = 0.0\nsamples = 1\nvalue = [1, 0]", fillcolor="#e58139ff"] ;
416 -> 418 ;
419 [label="gini = 0.0\nsamples = 58\nvalue = [58, 0]", fillcolor="#e58139ff"] ;
411 -> 419 ;
420 [label="X[1332] <= 0.5\ngini = 0.18\nsamples = 10\nvalue = [9, 1]", fillcolor="#e58139e3"] ;
410 -> 420 ;
421 [label="gini = 0.0\nsamples = 8\nvalue = [8, 0]", fillcolor="#e58139ff"] ;
420 -> 421 ;
422 [label="X[13] <= 0.5\ngini = 0.5\nsamples = 2\nvalue = [1, 1]", fillcolor="#e5813900"] ;
420 -> 422 ;
423 [label="gini = 0.0\nsamples = 1\nvalue = [1, 0]", fillcolor="#e58139ff"] ;
422 -> 423 ;
424 [label="gini = 0.0\nsamples = 1\nvalue = [0, 1]", fillcolor="#399de5ff"] ;
422 -> 424 ;
425 [label="X[1333] <= 0.5\ngini = 0.38\nsamples = 4\nvalue = [3, 1]", fillcolor="#e58139aa"] ;
409 -> 425 ;
426 [label="gini = 0.0\nsamples = 2\nvalue = [2, 0]", fillcolor="#e58139ff"] ;
425 -> 426 ;
427 [label="gini = 0.5\nsamples = 2\nvalue = [1, 1]", fillcolor="#e5813900"] ;
425 -> 427 ;
428 [label="X[4] <= 0.5\ngini = 0.5\nsamples = 6\nvalue = [3, 3]", fillcolor="#e5813900"] ;
408 -> 428 ;
429 [label="X[13] <= 0.5\ngini = 0.38\nsamples = 4\nvalue = [1, 3]", fillcolor="#399de5aa"] ;
428 -> 429 ;
430 [label="gini = 0.0\nsamples = 2\nvalue = [0, 2]", fillcolor="#399de5ff"] ;
429 -> 430 ;
431 [label="gini = 0.5\nsamples = 2\nvalue = [1, 1]", fillcolor="#e5813900"] ;
429 -> 431 ;
432 [label="gini = 0.0\nsamples = 2\nvalue = [2, 0]", fillcolor="#e58139ff"] ;
428 -> 432 ;
433 [label="X[1346] <= 0.5\ngini = 0.28\nsamples = 6\nvalue = [5, 1]", fillcolor="#e58139cc"] ;
99 -> 433 ;
434 [label="gini = 0.0\nsamples = 5\nvalue = [5, 0]", fillcolor="#e58139ff"] ;
433 -> 434 ;
435 [label="gini = 0.0\nsamples = 1\nvalue = [0, 1]", fillcolor="#399de5ff"] ;
433 -> 435 ;
436 [label="X[5] <= 0.5\ngini = 0.28\nsamples = 6\nvalue = [5, 1]", fillcolor="#e58139cc"] ;
98 -> 436 ;
437 [label="gini = 0.0\nsamples = 4\nvalue = [4, 0]", fillcolor="#e58139ff"] ;
436 -> 437 ;
438 [label="gini = 0.5\nsamples = 2\nvalue = [1, 1]", fillcolor="#e5813900"] ;
436 -> 438 ;
439 [label="X[1334] <= 0.5\ngini = 0.28\nsamples = 6\nvalue = [5, 1]", fillcolor="#e58139cc"] ;
97 -> 439 ;
440 [label="gini = 0.0\nsamples = 5\nvalue = [5, 0]", fillcolor="#e58139ff"] ;
439 -> 440 ;
441 [label="gini = 0.0\nsamples = 1\nvalue = [0, 1]", fillcolor="#399de5ff"] ;
439 -> 441 ;
442 [label="X[1333] <= 0.5\ngini = 0.2\nsamples = 18\nvalue = [16, 2]", fillcolor="#e58139df"] ;
96 -> 442 ;
443 [label="gini = 0.0\nsamples = 13\nvalue = [13, 0]", fillcolor="#e58139ff"] ;
442 -> 443 ;
444 [label="X[8] <= 0.5\ngini = 0.48\nsamples = 5\nvalue = [3, 2]", fillcolor="#e5813955"] ;
442 -> 444 ;
445 [label="gini = 0.0\nsamples = 2\nvalue = [2, 0]", fillcolor="#e58139ff"] ;
444 -> 445 ;
446 [label="X[1329] <= 0.5\ngini = 0.44\nsamples = 3\nvalue = [1, 2]", fillcolor="#399de57f"] ;
444 -> 446 ;
447 [label="gini = 0.0\nsamples = 1\nvalue = [1, 0]", fillcolor="#e58139ff"] ;
446 -> 447 ;
448 [label="gini = 0.0\nsamples = 2\nvalue = [0, 2]", fillcolor="#399de5ff"] ;
446 -> 448 ;
449 [label="X[1329] <= 0.5\ngini = 0.17\nsamples = 32\nvalue = [29, 3]", fillcolor="#e58139e5"] ;
95 -> 449 ;
450 [label="X[1332] <= 0.5\ngini = 0.44\nsamples = 6\nvalue = [4, 2]", fillcolor="#e581397f"] ;
449 -> 450 ;
451 [label="X[1334] <= 0.5\ngini = 0.32\nsamples = 5\nvalue = [4, 1]", fillcolor="#e58139bf"] ;
450 -> 451 ;
452 [label="gini = 0.0\nsamples = 3\nvalue = [3, 0]", fillcolor="#e58139ff"] ;
451 -> 452 ;
453 [label="X[13] <= 0.5\ngini = 0.5\nsamples = 2\nvalue = [1, 1]", fillcolor="#e5813900"] ;
451 -> 453 ;
454 [label="gini = 0.0\nsamples = 1\nvalue = [1, 0]", fillcolor="#e58139ff"] ;
453 -> 454 ;
455 [label="gini = 0.0\nsamples = 1\nvalue = [0, 1]", fillcolor="#399de5ff"] ;
453 -> 455 ;
456 [label="gini = 0.0\nsamples = 1\nvalue = [0, 1]", fillcolor="#399de5ff"] ;
450 -> 456 ;
457 [label="X[1331] <= 0.5\ngini = 0.07\nsamples = 26\nvalue = [25, 1]", fillcolor="#e58139f5"] ;
449 -> 457 ;
458 [label="gini = 0.0\nsamples = 23\nvalue = [23, 0]", fillcolor="#e58139ff"] ;
457 -> 458 ;
459 [label="X[4] <= 0.5\ngini = 0.44\nsamples = 3\nvalue = [2, 1]", fillcolor="#e581397f"] ;
457 -> 459 ;
460 [label="gini = 0.0\nsamples = 1\nvalue = [1, 0]", fillcolor="#e58139ff"] ;
459 -> 460 ;
461 [label="gini = 0.5\nsamples = 2\nvalue = [1, 1]", fillcolor="#e5813900"] ;
459 -> 461 ;
462 [label="X[1344] <= 0.5\ngini = 0.12\nsamples = 105\nvalue = [98, 7]", fillcolor="#e58139ed"] ;
94 -> 462 ;
463 [label="X[5] <= 0.5\ngini = 0.11\nsamples = 103\nvalue = [97, 6]", fillcolor="#e58139ef"] ;
462 -> 463 ;
464 [label="X[1335] <= 0.5\ngini = 0.1\nsamples = 99\nvalue = [94, 5]", fillcolor="#e58139f1"] ;
463 -> 464 ;
465 [label="X[8] <= 0.5\ngini = 0.07\nsamples = 86\nvalue = [83, 3]", fillcolor="#e58139f6"] ;
464 -> 465 ;
466 [label="gini = 0.0\nsamples = 47\nvalue = [47, 0]", fillcolor="#e58139ff"] ;
465 -> 466 ;
467 [label="X[1334] <= 0.5\ngini = 0.14\nsamples = 39\nvalue = [36, 3]", fillcolor="#e58139ea"] ;
465 -> 467 ;
468 [label="X[1333] <= 0.5\ngini = 0.07\nsamples = 29\nvalue = [28, 1]", fillcolor="#e58139f6"] ;
467 -> 468 ;
469 [label="gini = 0.0\nsamples = 15\nvalue = [15, 0]", fillcolor="#e58139ff"] ;
468 -> 469 ;
470 [label="X[13] <= 0.5\ngini = 0.13\nsamples = 14\nvalue = [13, 1]", fillcolor="#e58139eb"] ;
468 -> 470 ;
471 [label="gini = 0.0\nsamples = 3\nvalue = [3, 0]", fillcolor="#e58139ff"] ;
470 -> 471 ;
472 [label="X[1329] <= 0.5\ngini = 0.17\nsamples = 11\nvalue = [10, 1]", fillcolor="#e58139e6"] ;
470 -> 472 ;
473 [label="gini = 0.0\nsamples = 1\nvalue = [1, 0]", fillcolor="#e58139ff"] ;
472 -> 473 ;
474 [label="gini = 0.18\nsamples = 10\nvalue = [9, 1]", fillcolor="#e58139e3"] ;
472 -> 474 ;
475 [label="X[1330] <= 0.5\ngini = 0.32\nsamples = 10\nvalue = [8, 2]", fillcolor="#e58139bf"] ;
467 -> 475 ;
476 [label="gini = 0.38\nsamples = 8\nvalue = [6, 2]", fillcolor="#e58139aa"] ;
475 -> 476 ;
477 [label="gini = 0.0\nsamples = 2\nvalue = [2, 0]", fillcolor="#e58139ff"] ;
475 -> 477 ;
478 [label="X[15] <= 0.5\ngini = 0.26\nsamples = 13\nvalue = [11, 2]", fillcolor="#e58139d1"] ;
464 -> 478 ;
479 [label="X[6] <= 0.5\ngini = 0.15\nsamples = 12\nvalue = [11, 1]", fillcolor="#e58139e8"] ;
478 -> 479 ;
480 [label="gini = 0.0\nsamples = 7\nvalue = [7, 0]", fillcolor="#e58139ff"] ;
479 -> 480 ;
481 [label="X[13] <= 0.5\ngini = 0.32\nsamples = 5\nvalue = [4, 1]", fillcolor="#e58139bf"] ;
479 -> 481 ;
482 [label="gini = 0.0\nsamples = 1\nvalue = [1, 0]", fillcolor="#e58139ff"] ;
481 -> 482 ;
483 [label="gini = 0.38\nsamples = 4\nvalue = [3, 1]", fillcolor="#e58139aa"] ;
481 -> 483 ;
484 [label="gini = 0.0\nsamples = 1\nvalue = [0, 1]", fillcolor="#399de5ff"] ;
478 -> 484 ;
485 [label="X[1339] <= 0.5\ngini = 0.38\nsamples = 4\nvalue = [3, 1]", fillcolor="#e58139aa"] ;
463 -> 485 ;
486 [label="gini = 0.0\nsamples = 3\nvalue = [3, 0]", fillcolor="#e58139ff"] ;
485 -> 486 ;
487 [label="gini = 0.0\nsamples = 1\nvalue = [0, 1]", fillcolor="#399de5ff"] ;
485 -> 487 ;
488 [label="X[8] <= 0.5\ngini = 0.5\nsamples = 2\nvalue = [1, 1]", fillcolor="#e5813900"] ;
462 -> 488 ;
489 [label="gini = 0.0\nsamples = 1\nvalue = [1, 0]", fillcolor="#e58139ff"] ;
488 -> 489 ;
490 [label="gini = 0.0\nsamples = 1\nvalue = [0, 1]", fillcolor="#399de5ff"] ;
488 -> 490 ;
491 [label="X[1338] <= 0.5\ngini = 0.21\nsamples = 17\nvalue = [15, 2]", fillcolor="#e58139dd"] ;
93 -> 491 ;
492 [label="X[1331] <= 0.5\ngini = 0.12\nsamples = 16\nvalue = [15, 1]", fillcolor="#e58139ee"] ;
491 -> 492 ;
493 [label="gini = 0.0\nsamples = 13\nvalue = [13, 0]", fillcolor="#e58139ff"] ;
492 -> 493 ;
494 [label="X[9] <= 0.5\ngini = 0.44\nsamples = 3\nvalue = [2, 1]", fillcolor="#e581397f"] ;
492 -> 494 ;
495 [label="gini = 0.0\nsamples = 2\nvalue = [2, 0]", fillcolor="#e58139ff"] ;
494 -> 495 ;
496 [label="gini = 0.0\nsamples = 1\nvalue = [0, 1]", fillcolor="#399de5ff"] ;
494 -> 496 ;
497 [label="gini = 0.0\nsamples = 1\nvalue = [0, 1]", fillcolor="#399de5ff"] ;
491 -> 497 ;
498 [label="X[1347] <= 0.5\ngini = 0.21\nsamples = 17\nvalue = [15, 2]", fillcolor="#e58139dd"] ;
92 -> 498 ;
499 [label="X[1333] <= 0.5\ngini = 0.12\nsamples = 16\nvalue = [15, 1]", fillcolor="#e58139ee"] ;
498 -> 499 ;
500 [label="gini = 0.0\nsamples = 13\nvalue = [13, 0]", fillcolor="#e58139ff"] ;
499 -> 500 ;
501 [label="X[17] <= 0.5\ngini = 0.44\nsamples = 3\nvalue = [2, 1]", fillcolor="#e581397f"] ;
499 -> 501 ;
502 [label="gini = 0.0\nsamples = 2\nvalue = [2, 0]", fillcolor="#e58139ff"] ;
501 -> 502 ;
503 [label="gini = 0.0\nsamples = 1\nvalue = [0, 1]", fillcolor="#399de5ff"] ;
501 -> 503 ;
504 [label="gini = 0.0\nsamples = 1\nvalue = [0, 1]", fillcolor="#399de5ff"] ;
498 -> 504 ;
505 [label="X[1354] <= 0.5\ngini = 0.18\nsamples = 30\nvalue = [27, 3]", fillcolor="#e58139e3"] ;
91 -> 505 ;
506 [label="X[12] <= 0.5\ngini = 0.13\nsamples = 29\nvalue = [27, 2]", fillcolor="#e58139ec"] ;
505 -> 506 ;
507 [label="X[4] <= 0.5\ngini = 0.07\nsamples = 27\nvalue = [26, 1]", fillcolor="#e58139f5"] ;
506 -> 507 ;
508 [label="gini = 0.0\nsamples = 22\nvalue = [22, 0]", fillcolor="#e58139ff"] ;
507 -> 508 ;
509 [label="X[1333] <= 0.5\ngini = 0.32\nsamples = 5\nvalue = [4, 1]", fillcolor="#e58139bf"] ;
507 -> 509 ;
510 [label="gini = 0.0\nsamples = 4\nvalue = [4, 0]", fillcolor="#e58139ff"] ;
509 -> 510 ;
511 [label="gini = 0.0\nsamples = 1\nvalue = [0, 1]", fillcolor="#399de5ff"] ;
509 -> 511 ;
512 [label="X[1329] <= 0.5\ngini = 0.5\nsamples = 2\nvalue = [1, 1]", fillcolor="#e5813900"] ;
506 -> 512 ;
513 [label="gini = 0.0\nsamples = 1\nvalue = [0, 1]", fillcolor="#399de5ff"] ;
512 -> 513 ;
514 [label="gini = 0.0\nsamples = 1\nvalue = [1, 0]", fillcolor="#e58139ff"] ;
512 -> 514 ;
515 [label="gini = 0.0\nsamples = 1\nvalue = [0, 1]", fillcolor="#399de5ff"] ;
505 -> 515 ;
516 [label="X[8] <= 0.5\ngini = 0.15\nsamples = 60\nvalue = [55, 5]", fillcolor="#e58139e8"] ;
90 -> 516 ;
517 [label="X[1332] <= 0.5\ngini = 0.08\nsamples = 51\nvalue = [49, 2]", fillcolor="#e58139f5"] ;
516 -> 517 ;
518 [label="gini = 0.0\nsamples = 39\nvalue = [39, 0]", fillcolor="#e58139ff"] ;
517 -> 518 ;
519 [label="X[3] <= 0.5\ngini = 0.28\nsamples = 12\nvalue = [10, 2]", fillcolor="#e58139cc"] ;
517 -> 519 ;
520 [label="gini = 0.0\nsamples = 7\nvalue = [7, 0]", fillcolor="#e58139ff"] ;
519 -> 520 ;
521 [label="X[18] <= 0.5\ngini = 0.48\nsamples = 5\nvalue = [3, 2]", fillcolor="#e5813955"] ;
519 -> 521 ;
522 [label="X[1330] <= 0.5\ngini = 0.38\nsamples = 4\nvalue = [3, 1]", fillcolor="#e58139aa"] ;
521 -> 522 ;
523 [label="gini = 0.44\nsamples = 3\nvalue = [2, 1]", fillcolor="#e581397f"] ;
522 -> 523 ;
524 [label="gini = 0.0\nsamples = 1\nvalue = [1, 0]", fillcolor="#e58139ff"] ;
522 -> 524 ;
525 [label="gini = 0.0\nsamples = 1\nvalue = [0, 1]", fillcolor="#399de5ff"] ;
521 -> 525 ;
526 [label="X[1335] <= 0.5\ngini = 0.44\nsamples = 9\nvalue = [6, 3]", fillcolor="#e581397f"] ;
516 -> 526 ;
527 [label="X[1331] <= 0.5\ngini = 0.38\nsamples = 8\nvalue = [6, 2]", fillcolor="#e58139aa"] ;
526 -> 527 ;
528 [label="X[1334] <= 0.5\ngini = 0.24\nsamples = 7\nvalue = [6, 1]", fillcolor="#e58139d4"] ;
527 -> 528 ;
529 [label="gini = 0.0\nsamples = 5\nvalue = [5, 0]", fillcolor="#e58139ff"] ;
528 -> 529 ;
530 [label="X[1330] <= 0.5\ngini = 0.5\nsamples = 2\nvalue = [1, 1]", fillcolor="#e5813900"] ;
528 -> 530 ;
531 [label="gini = 0.0\nsamples = 1\nvalue = [0, 1]", fillcolor="#399de5ff"] ;
530 -> 531 ;
532 [label="gini = 0.0\nsamples = 1\nvalue = [1, 0]", fillcolor="#e58139ff"] ;
530 -> 532 ;
533 [label="gini = 0.0\nsamples = 1\nvalue = [0, 1]", fillcolor="#399de5ff"] ;
527 -> 533 ;
534 [label="gini = 0.0\nsamples = 1\nvalue = [0, 1]", fillcolor="#399de5ff"] ;
526 -> 534 ;
535 [label="X[18] <= 0.5\ngini = 0.32\nsamples = 5\nvalue = [4, 1]", fillcolor="#e58139bf"] ;
89 -> 535 ;
536 [label="gini = 0.0\nsamples = 1\nvalue = [0, 1]", fillcolor="#399de5ff"] ;
535 -> 536 ;
537 [label="gini = 0.0\nsamples = 4\nvalue = [4, 0]", fillcolor="#e58139ff"] ;
535 -> 537 ;
538 [label="X[5] <= 0.5\ngini = 0.32\nsamples = 5\nvalue = [4, 1]", fillcolor="#e58139bf"] ;
88 -> 538 ;
539 [label="gini = 0.0\nsamples = 4\nvalue = [4, 0]", fillcolor="#e58139ff"] ;
538 -> 539 ;
540 [label="gini = 0.0\nsamples = 1\nvalue = [0, 1]", fillcolor="#399de5ff"] ;
538 -> 540 ;
541 [label="X[4] <= 0.5\ngini = 0.32\nsamples = 5\nvalue = [4, 1]", fillcolor="#e58139bf"] ;
87 -> 541 ;
542 [label="gini = 0.0\nsamples = 4\nvalue = [4, 0]", fillcolor="#e58139ff"] ;
541 -> 542 ;
543 [label="gini = 0.0\nsamples = 1\nvalue = [0, 1]", fillcolor="#399de5ff"] ;
541 -> 543 ;
544 [label="X[1331] <= 0.5\ngini = 0.32\nsamples = 5\nvalue = [4, 1]", fillcolor="#e58139bf"] ;
86 -> 544 ;
545 [label="gini = 0.0\nsamples = 3\nvalue = [3, 0]", fillcolor="#e58139ff"] ;
544 -> 545 ;
546 [label="gini = 0.5\nsamples = 2\nvalue = [1, 1]", fillcolor="#e5813900"] ;
544 -> 546 ;
547 [label="X[1331] <= 0.5\ngini = 0.24\nsamples = 14\nvalue = [12, 2]", fillcolor="#e58139d4"] ;
85 -> 547 ;
548 [label="X[2] <= 0.5\ngini = 0.15\nsamples = 12\nvalue = [11, 1]", fillcolor="#e58139e8"] ;
547 -> 548 ;
549 [label="gini = 0.0\nsamples = 6\nvalue = [6, 0]", fillcolor="#e58139ff"] ;
548 -> 549 ;
550 [label="X[1332] <= 0.5\ngini = 0.28\nsamples = 6\nvalue = [5, 1]", fillcolor="#e58139cc"] ;
548 -> 550 ;
551 [label="gini = 0.0\nsamples = 4\nvalue = [4, 0]", fillcolor="#e58139ff"] ;
550 -> 551 ;
552 [label="X[1330] <= 0.5\ngini = 0.5\nsamples = 2\nvalue = [1, 1]", fillcolor="#e5813900"] ;
550 -> 552 ;
553 [label="gini = 0.0\nsamples = 1\nvalue = [0, 1]", fillcolor="#399de5ff"] ;
552 -> 553 ;
554 [label="gini = 0.0\nsamples = 1\nvalue = [1, 0]", fillcolor="#e58139ff"] ;
552 -> 554 ;
555 [label="X[2] <= 0.5\ngini = 0.5\nsamples = 2\nvalue = [1, 1]", fillcolor="#e5813900"] ;
547 -> 555 ;
556 [label="gini = 0.0\nsamples = 1\nvalue = [0, 1]", fillcolor="#399de5ff"] ;
555 -> 556 ;
557 [label="gini = 0.0\nsamples = 1\nvalue = [1, 0]", fillcolor="#e58139ff"] ;
555 -> 557 ;
558 [label="X[15] <= 0.5\ngini = 0.26\nsamples = 13\nvalue = [11, 2]", fillcolor="#e58139d1"] ;
84 -> 558 ;
559 [label="gini = 0.0\nsamples = 6\nvalue = [6, 0]", fillcolor="#e58139ff"] ;
558 -> 559 ;
560 [label="X[2] <= 0.5\ngini = 0.41\nsamples = 7\nvalue = [5, 2]", fillcolor="#e5813999"] ;
558 -> 560 ;
561 [label="X[5] <= 0.5\ngini = 0.28\nsamples = 6\nvalue = [5, 1]", fillcolor="#e58139cc"] ;
560 -> 561 ;
562 [label="gini = 0.0\nsamples = 4\nvalue = [4, 0]", fillcolor="#e58139ff"] ;
561 -> 562 ;
563 [label="X[1332] <= 0.5\ngini = 0.5\nsamples = 2\nvalue = [1, 1]", fillcolor="#e5813900"] ;
561 -> 563 ;
564 [label="gini = 0.0\nsamples = 1\nvalue = [1, 0]", fillcolor="#e58139ff"] ;
563 -> 564 ;
565 [label="gini = 0.0\nsamples = 1\nvalue = [0, 1]", fillcolor="#399de5ff"] ;
563 -> 565 ;
566 [label="gini = 0.0\nsamples = 1\nvalue = [0, 1]", fillcolor="#399de5ff"] ;
560 -> 566 ;
567 [label="X[8] <= 0.5\ngini = 0.38\nsamples = 4\nvalue = [3, 1]", fillcolor="#e58139aa"] ;
83 -> 567 ;
568 [label="gini = 0.0\nsamples = 2\nvalue = [2, 0]", fillcolor="#e58139ff"] ;
567 -> 568 ;
569 [label="gini = 0.5\nsamples = 2\nvalue = [1, 1]", fillcolor="#e5813900"] ;
567 -> 569 ;
570 [label="X[3] <= 0.5\ngini = 0.38\nsamples = 4\nvalue = [3, 1]", fillcolor="#e58139aa"] ;
82 -> 570 ;
571 [label="gini = 0.0\nsamples = 3\nvalue = [3, 0]", fillcolor="#e58139ff"] ;
570 -> 571 ;
572 [label="gini = 0.0\nsamples = 1\nvalue = [0, 1]", fillcolor="#399de5ff"] ;
570 -> 572 ;
573 [label="X[1330] <= 0.5\ngini = 0.38\nsamples = 4\nvalue = [3, 1]", fillcolor="#e58139aa"] ;
81 -> 573 ;
574 [label="gini = 0.0\nsamples = 2\nvalue = [2, 0]", fillcolor="#e58139ff"] ;
573 -> 574 ;
575 [label="X[1331] <= 0.5\ngini = 0.5\nsamples = 2\nvalue = [1, 1]", fillcolor="#e5813900"] ;
573 -> 575 ;
576 [label="gini = 0.0\nsamples = 1\nvalue = [0, 1]", fillcolor="#399de5ff"] ;
575 -> 576 ;
577 [label="gini = 0.0\nsamples = 1\nvalue = [1, 0]", fillcolor="#e58139ff"] ;
575 -> 577 ;
578 [label="X[1338] <= 0.5\ngini = 0.38\nsamples = 4\nvalue = [3, 1]", fillcolor="#e58139aa"] ;
80 -> 578 ;
579 [label="gini = 0.0\nsamples = 3\nvalue = [3, 0]", fillcolor="#e58139ff"] ;
578 -> 579 ;
580 [label="gini = 0.0\nsamples = 1\nvalue = [0, 1]", fillcolor="#399de5ff"] ;
578 -> 580 ;
581 [label="X[17] <= 0.5\ngini = 0.38\nsamples = 4\nvalue = [3, 1]", fillcolor="#e58139aa"] ;
79 -> 581 ;
582 [label="gini = 0.0\nsamples = 3\nvalue = [3, 0]", fillcolor="#e58139ff"] ;
581 -> 582 ;
583 [label="gini = 0.0\nsamples = 1\nvalue = [0, 1]", fillcolor="#399de5ff"] ;
581 -> 583 ;
584 [label="X[12] <= 0.5\ngini = 0.2\nsamples = 45\nvalue = [40, 5]", fillcolor="#e58139df"] ;
78 -> 584 ;
585 [label="X[1332] <= 0.5\ngini = 0.14\nsamples = 41\nvalue = [38, 3]", fillcolor="#e58139eb"] ;
584 -> 585 ;
586 [label="X[1335] <= 0.5\ngini = 0.05\nsamples = 36\nvalue = [35, 1]", fillcolor="#e58139f8"] ;
585 -> 586 ;
587 [label="gini = 0.0\nsamples = 32\nvalue = [32, 0]", fillcolor="#e58139ff"] ;
586 -> 587 ;
588 [label="X[17] <= 0.5\ngini = 0.38\nsamples = 4\nvalue = [3, 1]", fillcolor="#e58139aa"] ;
586 -> 588 ;
589 [label="gini = 0.0\nsamples = 2\nvalue = [2, 0]", fillcolor="#e58139ff"] ;
588 -> 589 ;
590 [label="X[8] <= 0.5\ngini = 0.5\nsamples = 2\nvalue = [1, 1]", fillcolor="#e5813900"] ;
588 -> 590 ;
591 [label="gini = 0.0\nsamples = 1\nvalue = [1, 0]", fillcolor="#e58139ff"] ;
590 -> 591 ;
592 [label="gini = 0.0\nsamples = 1\nvalue = [0, 1]", fillcolor="#399de5ff"] ;
590 -> 592 ;
593 [label="X[6] <= 0.5\ngini = 0.48\nsamples = 5\nvalue = [3, 2]", fillcolor="#e5813955"] ;
585 -> 593 ;
594 [label="gini = 0.0\nsamples = 3\nvalue = [3, 0]", fillcolor="#e58139ff"] ;
593 -> 594 ;
595 [label="gini = 0.0\nsamples = 2\nvalue = [0, 2]", fillcolor="#399de5ff"] ;
593 -> 595 ;
596 [label="X[8] <= 0.5\ngini = 0.5\nsamples = 4\nvalue = [2, 2]", fillcolor="#e5813900"] ;
584 -> 596 ;
597 [label="gini = 0.0\nsamples = 2\nvalue = [2, 0]", fillcolor="#e58139ff"] ;
596 -> 597 ;
598 [label="gini = 0.0\nsamples = 2\nvalue = [0, 2]", fillcolor="#399de5ff"] ;
596 -> 598 ;
599 [label="X[853] <= 0.5\ngini = 0.17\nsamples = 73\nvalue = [66, 7]", fillcolor="#e58139e4"] ;
77 -> 599 ;
600 [label="X[681] <= 0.5\ngini = 0.13\nsamples = 70\nvalue = [65, 5]", fillcolor="#e58139eb"] ;
599 -> 600 ;
601 [label="X[278] <= 0.5\ngini = 0.11\nsamples = 69\nvalue = [65, 4]", fillcolor="#e58139ef"] ;
600 -> 601 ;
602 [label="X[81] <= 0.5\ngini = 0.08\nsamples = 68\nvalue = [65, 3]", fillcolor="#e58139f3"] ;
601 -> 602 ;
603 [label="X[30] <= 0.5\ngini = 0.06\nsamples = 67\nvalue = [65, 2]", fillcolor="#e58139f7"] ;
602 -> 603 ;
604 [label="X[544] <= 0.5\ngini = 0.03\nsamples = 65\nvalue = [64, 1]", fillcolor="#e58139fb"] ;
603 -> 604 ;
605 [label="gini = 0.0\nsamples = 61\nvalue = [61, 0]", fillcolor="#e58139ff"] ;
604 -> 605 ;
606 [label="X[18] <= 0.5\ngini = 0.38\nsamples = 4\nvalue = [3, 1]", fillcolor="#e58139aa"] ;
604 -> 606 ;
607 [label="gini = 0.0\nsamples = 1\nvalue = [0, 1]", fillcolor="#399de5ff"] ;
606 -> 607 ;
608 [label="gini = 0.0\nsamples = 3\nvalue = [3, 0]", fillcolor="#e58139ff"] ;
606 -> 608 ;
609 [label="X[2] <= 0.5\ngini = 0.5\nsamples = 2\nvalue = [1, 1]", fillcolor="#e5813900"] ;
603 -> 609 ;
610 [label="gini = 0.0\nsamples = 1\nvalue = [0, 1]", fillcolor="#399de5ff"] ;
609 -> 610 ;
611 [label="gini = 0.0\nsamples = 1\nvalue = [1, 0]", fillcolor="#e58139ff"] ;
609 -> 611 ;
612 [label="gini = 0.0\nsamples = 1\nvalue = [0, 1]", fillcolor="#399de5ff"] ;
602 -> 612 ;
613 [label="gini = 0.0\nsamples = 1\nvalue = [0, 1]", fillcolor="#399de5ff"] ;
601 -> 613 ;
614 [label="gini = 0.0\nsamples = 1\nvalue = [0, 1]", fillcolor="#399de5ff"] ;
600 -> 614 ;
615 [label="gini = 0.44\nsamples = 3\nvalue = [1, 2]", fillcolor="#399de57f"] ;
599 -> 615 ;
616 [label="X[1342] <= 0.5\ngini = 0.21\nsamples = 34\nvalue = [30, 4]", fillcolor="#e58139dd"] ;
76 -> 616 ;
617 [label="X[1334] <= 0.5\ngini = 0.17\nsamples = 33\nvalue = [30, 3]", fillcolor="#e58139e6"] ;
616 -> 617 ;
618 [label="X[17] <= 0.5\ngini = 0.13\nsamples = 29\nvalue = [27, 2]", fillcolor="#e58139ec"] ;
617 -> 618 ;
619 [label="gini = 0.0\nsamples = 17\nvalue = [17, 0]", fillcolor="#e58139ff"] ;
618 -> 619 ;
620 [label="X[1333] <= 0.5\ngini = 0.28\nsamples = 12\nvalue = [10, 2]", fillcolor="#e58139cc"] ;
618 -> 620 ;
621 [label="X[5] <= 0.5\ngini = 0.22\nsamples = 8\nvalue = [7, 1]", fillcolor="#e58139db"] ;
620 -> 621 ;
622 [label="gini = 0.0\nsamples = 4\nvalue = [4, 0]", fillcolor="#e58139ff"] ;
621 -> 622 ;
623 [label="X[1332] <= 0.5\ngini = 0.38\nsamples = 4\nvalue = [3, 1]", fillcolor="#e58139aa"] ;
621 -> 623 ;
624 [label="gini = 0.0\nsamples = 1\nvalue = [1, 0]", fillcolor="#e58139ff"] ;
623 -> 624 ;
625 [label="gini = 0.44\nsamples = 3\nvalue = [2, 1]", fillcolor="#e581397f"] ;
623 -> 625 ;
626 [label="X[4] <= 0.5\ngini = 0.38\nsamples = 4\nvalue = [3, 1]", fillcolor="#e58139aa"] ;
620 -> 626 ;
627 [label="gini = 0.0\nsamples = 3\nvalue = [3, 0]", fillcolor="#e58139ff"] ;
626 -> 627 ;
628 [label="gini = 0.0\nsamples = 1\nvalue = [0, 1]", fillcolor="#399de5ff"] ;
626 -> 628 ;
629 [label="X[6] <= 0.5\ngini = 0.38\nsamples = 4\nvalue = [3, 1]", fillcolor="#e58139aa"] ;
617 -> 629 ;
630 [label="gini = 0.0\nsamples = 3\nvalue = [3, 0]", fillcolor="#e58139ff"] ;
629 -> 630 ;
631 [label="gini = 0.0\nsamples = 1\nvalue = [0, 1]", fillcolor="#399de5ff"] ;
629 -> 631 ;
632 [label="gini = 0.0\nsamples = 1\nvalue = [0, 1]", fillcolor="#399de5ff"] ;
616 -> 632 ;
633 [label="X[9] <= 0.5\ngini = 0.17\nsamples = 99\nvalue = [90, 9]", fillcolor="#e58139e6"] ;
75 -> 633 ;
634 [label="X[1335] <= 0.5\ngini = 0.15\nsamples = 96\nvalue = [88, 8]", fillcolor="#e58139e8"] ;
633 -> 634 ;
635 [label="X[1334] <= 0.5\ngini = 0.13\nsamples = 87\nvalue = [81, 6]", fillcolor="#e58139ec"] ;
634 -> 635 ;
636 [label="X[1338] <= 0.5\ngini = 0.09\nsamples = 67\nvalue = [64, 3]", fillcolor="#e58139f3"] ;
635 -> 636 ;
637 [label="X[1332] <= 0.5\ngini = 0.06\nsamples = 62\nvalue = [60, 2]", fillcolor="#e58139f6"] ;
636 -> 637 ;
638 [label="X[1331] <= 0.5\ngini = 0.04\nsamples = 51\nvalue = [50, 1]", fillcolor="#e58139fa"] ;
637 -> 638 ;
639 [label="gini = 0.0\nsamples = 38\nvalue = [38, 0]", fillcolor="#e58139ff"] ;
638 -> 639 ;
640 [label="X[6] <= 0.5\ngini = 0.14\nsamples = 13\nvalue = [12, 1]", fillcolor="#e58139ea"] ;
638 -> 640 ;
641 [label="gini = 0.0\nsamples = 7\nvalue = [7, 0]", fillcolor="#e58139ff"] ;
640 -> 641 ;
642 [label="X[1330] <= 0.5\ngini = 0.28\nsamples = 6\nvalue = [5, 1]", fillcolor="#e58139cc"] ;
640 -> 642 ;
643 [label="gini = 0.38\nsamples = 4\nvalue = [3, 1]", fillcolor="#e58139aa"] ;
642 -> 643 ;
644 [label="gini = 0.0\nsamples = 2\nvalue = [2, 0]", fillcolor="#e58139ff"] ;
642 -> 644 ;
645 [label="X[8] <= 0.5\ngini = 0.17\nsamples = 11\nvalue = [10, 1]", fillcolor="#e58139e6"] ;
637 -> 645 ;
646 [label="gini = 0.0\nsamples = 6\nvalue = [6, 0]", fillcolor="#e58139ff"] ;
645 -> 646 ;
647 [label="gini = 0.32\nsamples = 5\nvalue = [4, 1]", fillcolor="#e58139bf"] ;
645 -> 647 ;
648 [label="X[6] <= 0.5\ngini = 0.32\nsamples = 5\nvalue = [4, 1]", fillcolor="#e58139bf"] ;
636 -> 648 ;
649 [label="gini = 0.0\nsamples = 3\nvalue = [3, 0]", fillcolor="#e58139ff"] ;
648 -> 649 ;
650 [label="gini = 0.5\nsamples = 2\nvalue = [1, 1]", fillcolor="#e5813900"] ;
648 -> 650 ;
651 [label="X[1329] <= 0.5\ngini = 0.26\nsamples = 20\nvalue = [17, 3]", fillcolor="#e58139d2"] ;
635 -> 651 ;
652 [label="X[12] <= 0.5\ngini = 0.48\nsamples = 5\nvalue = [3, 2]", fillcolor="#e5813955"] ;
651 -> 652 ;
653 [label="X[8] <= 0.5\ngini = 0.38\nsamples = 4\nvalue = [3, 1]", fillcolor="#e58139aa"] ;
652 -> 653 ;
654 [label="gini = 0.0\nsamples = 2\nvalue = [2, 0]", fillcolor="#e58139ff"] ;
653 -> 654 ;
655 [label="gini = 0.5\nsamples = 2\nvalue = [1, 1]", fillcolor="#e5813900"] ;
653 -> 655 ;
656 [label="gini = 0.0\nsamples = 1\nvalue = [0, 1]", fillcolor="#399de5ff"] ;
652 -> 656 ;
657 [label="X[8] <= 0.5\ngini = 0.12\nsamples = 15\nvalue = [14, 1]", fillcolor="#e58139ed"] ;
651 -> 657 ;
658 [label="gini = 0.0\nsamples = 5\nvalue = [5, 0]", fillcolor="#e58139ff"] ;
657 -> 658 ;
659 [label="X[13] <= 0.5\ngini = 0.18\nsamples = 10\nvalue = [9, 1]", fillcolor="#e58139e3"] ;
657 -> 659 ;
660 [label="gini = 0.0\nsamples = 3\nvalue = [3, 0]", fillcolor="#e58139ff"] ;
659 -> 660 ;
661 [label="gini = 0.24\nsamples = 7\nvalue = [6, 1]", fillcolor="#e58139d4"] ;
659 -> 661 ;
662 [label="X[12] <= 0.5\ngini = 0.35\nsamples = 9\nvalue = [7, 2]", fillcolor="#e58139b6"] ;
634 -> 662 ;
663 [label="X[6] <= 0.5\ngini = 0.22\nsamples = 8\nvalue = [7, 1]", fillcolor="#e58139db"] ;
662 -> 663 ;
664 [label="gini = 0.0\nsamples = 5\nvalue = [5, 0]", fillcolor="#e58139ff"] ;
663 -> 664 ;
665 [label="X[1329] <= 0.5\ngini = 0.44\nsamples = 3\nvalue = [2, 1]", fillcolor="#e581397f"] ;
663 -> 665 ;
666 [label="gini = 0.0\nsamples = 1\nvalue = [1, 0]", fillcolor="#e58139ff"] ;
665 -> 666 ;
667 [label="gini = 0.5\nsamples = 2\nvalue = [1, 1]", fillcolor="#e5813900"] ;
665 -> 667 ;
668 [label="gini = 0.0\nsamples = 1\nvalue = [0, 1]", fillcolor="#399de5ff"] ;
662 -> 668 ;
669 [label="X[1330] <= 0.5\ngini = 0.44\nsamples = 3\nvalue = [2, 1]", fillcolor="#e581397f"] ;
633 -> 669 ;
670 [label="gini = 0.0\nsamples = 2\nvalue = [2, 0]", fillcolor="#e58139ff"] ;
669 -> 670 ;
671 [label="gini = 0.0\nsamples = 1\nvalue = [0, 1]", fillcolor="#399de5ff"] ;
669 -> 671 ;
672 [label="X[17] <= 0.5\ngini = 0.3\nsamples = 11\nvalue = [9, 2]", fillcolor="#e58139c6"] ;
74 -> 672 ;
673 [label="gini = 0.0\nsamples = 8\nvalue = [8, 0]", fillcolor="#e58139ff"] ;
672 -> 673 ;
674 [label="X[9] <= 0.5\ngini = 0.44\nsamples = 3\nvalue = [1, 2]", fillcolor="#399de57f"] ;
672 -> 674 ;
675 [label="gini = 0.0\nsamples = 1\nvalue = [1, 0]", fillcolor="#e58139ff"] ;
674 -> 675 ;
676 [label="gini = 0.0\nsamples = 2\nvalue = [0, 2]", fillcolor="#399de5ff"] ;
674 -> 676 ;
677 [label="X[6] <= 0.5\ngini = 0.18\nsamples = 68\nvalue = [61, 7]", fillcolor="#e58139e2"] ;
73 -> 677 ;
678 [label="X[1335] <= 0.5\ngini = 0.09\nsamples = 43\nvalue = [41, 2]", fillcolor="#e58139f3"] ;
677 -> 678 ;
679 [label="gini = 0.0\nsamples = 36\nvalue = [36, 0]", fillcolor="#e58139ff"] ;
678 -> 679 ;
680 [label="X[15] <= 0.5\ngini = 0.41\nsamples = 7\nvalue = [5, 2]", fillcolor="#e5813999"] ;
678 -> 680 ;
681 [label="gini = 0.0\nsamples = 4\nvalue = [4, 0]", fillcolor="#e58139ff"] ;
680 -> 681 ;
682 [label="X[17] <= 0.5\ngini = 0.44\nsamples = 3\nvalue = [1, 2]", fillcolor="#399de57f"] ;
680 -> 682 ;
683 [label="gini = 0.0\nsamples = 2\nvalue = [0, 2]", fillcolor="#399de5ff"] ;
682 -> 683 ;
684 [label="gini = 0.0\nsamples = 1\nvalue = [1, 0]", fillcolor="#e58139ff"] ;
682 -> 684 ;
685 [label="X[1333] <= 0.5\ngini = 0.32\nsamples = 25\nvalue = [20, 5]", fillcolor="#e58139bf"] ;
677 -> 685 ;
686 [label="X[18] <= 0.5\ngini = 0.23\nsamples = 23\nvalue = [20, 3]", fillcolor="#e58139d9"] ;
685 -> 686 ;
687 [label="gini = 0.0\nsamples = 1\nvalue = [0, 1]", fillcolor="#399de5ff"] ;
686 -> 687 ;
688 [label="X[1337] <= 0.5\ngini = 0.17\nsamples = 22\nvalue = [20, 2]", fillcolor="#e58139e6"] ;
686 -> 688 ;
689 [label="X[1334] <= 0.5\ngini = 0.1\nsamples = 18\nvalue = [17, 1]", fillcolor="#e58139f0"] ;
688 -> 689 ;
690 [label="gini = 0.0\nsamples = 14\nvalue = [14, 0]", fillcolor="#e58139ff"] ;
689 -> 690 ;
691 [label="gini = 0.38\nsamples = 4\nvalue = [3, 1]", fillcolor="#e58139aa"] ;
689 -> 691 ;
692 [label="X[12] <= 0.5\ngini = 0.38\nsamples = 4\nvalue = [3, 1]", fillcolor="#e58139aa"] ;
688 -> 692 ;
693 [label="X[1330] <= 0.5\ngini = 0.5\nsamples = 2\nvalue = [1, 1]", fillcolor="#e5813900"] ;
692 -> 693 ;
694 [label="gini = 0.0\nsamples = 1\nvalue = [0, 1]", fillcolor="#399de5ff"] ;
693 -> 694 ;
695 [label="gini = 0.0\nsamples = 1\nvalue = [1, 0]", fillcolor="#e58139ff"] ;
693 -> 695 ;
696 [label="gini = 0.0\nsamples = 2\nvalue = [2, 0]", fillcolor="#e58139ff"] ;
692 -> 696 ;
697 [label="gini = 0.0\nsamples = 2\nvalue = [0, 2]", fillcolor="#399de5ff"] ;
685 -> 697 ;
698 [label="X[1337] <= 0.5\ngini = 0.2\nsamples = 54\nvalue = [48, 6]", fillcolor="#e58139df"] ;
72 -> 698 ;
699 [label="X[1342] <= 0.5\ngini = 0.17\nsamples = 53\nvalue = [48, 5]", fillcolor="#e58139e4"] ;
698 -> 699 ;
700 [label="X[1333] <= 0.5\ngini = 0.14\nsamples = 52\nvalue = [48, 4]", fillcolor="#e58139ea"] ;
699 -> 700 ;
701 [label="X[1330] <= 0.5\ngini = 0.05\nsamples = 41\nvalue = [40, 1]", fillcolor="#e58139f9"] ;
700 -> 701 ;
702 [label="gini = 0.0\nsamples = 33\nvalue = [33, 0]", fillcolor="#e58139ff"] ;
701 -> 702 ;
703 [label="X[9] <= 0.5\ngini = 0.22\nsamples = 8\nvalue = [7, 1]", fillcolor="#e58139db"] ;
701 -> 703 ;
704 [label="gini = 0.0\nsamples = 6\nvalue = [6, 0]", fillcolor="#e58139ff"] ;
703 -> 704 ;
705 [label="X[1332] <= 0.5\ngini = 0.5\nsamples = 2\nvalue = [1, 1]", fillcolor="#e5813900"] ;
703 -> 705 ;
706 [label="gini = 0.0\nsamples = 1\nvalue = [0, 1]", fillcolor="#399de5ff"] ;
705 -> 706 ;
707 [label="gini = 0.0\nsamples = 1\nvalue = [1, 0]", fillcolor="#e58139ff"] ;
705 -> 707 ;
708 [label="X[9] <= 0.5\ngini = 0.4\nsamples = 11\nvalue = [8, 3]", fillcolor="#e581399f"] ;
700 -> 708 ;
709 [label="X[1329] <= 0.5\ngini = 0.32\nsamples = 10\nvalue = [8, 2]", fillcolor="#e58139bf"] ;
708 -> 709 ;
710 [label="gini = 0.0\nsamples = 4\nvalue = [4, 0]", fillcolor="#e58139ff"] ;
709 -> 710 ;
711 [label="X[4] <= 0.5\ngini = 0.44\nsamples = 6\nvalue = [4, 2]", fillcolor="#e581397f"] ;
709 -> 711 ;
712 [label="X[6] <= 0.5\ngini = 0.32\nsamples = 5\nvalue = [4, 1]", fillcolor="#e58139bf"] ;
711 -> 712 ;
713 [label="gini = 0.0\nsamples = 2\nvalue = [2, 0]", fillcolor="#e58139ff"] ;
712 -> 713 ;
714 [label="X[18] <= 0.5\ngini = 0.44\nsamples = 3\nvalue = [2, 1]", fillcolor="#e581397f"] ;
712 -> 714 ;
715 [label="gini = 0.0\nsamples = 1\nvalue = [1, 0]", fillcolor="#e58139ff"] ;
714 -> 715 ;
716 [label="gini = 0.5\nsamples = 2\nvalue = [1, 1]", fillcolor="#e5813900"] ;
714 -> 716 ;
717 [label="gini = 0.0\nsamples = 1\nvalue = [0, 1]", fillcolor="#399de5ff"] ;
711 -> 717 ;
718 [label="gini = 0.0\nsamples = 1\nvalue = [0, 1]", fillcolor="#399de5ff"] ;
708 -> 718 ;
719 [label="gini = 0.0\nsamples = 1\nvalue = [0, 1]", fillcolor="#399de5ff"] ;
699 -> 719 ;
720 [label="gini = 0.0\nsamples = 1\nvalue = [0, 1]", fillcolor="#399de5ff"] ;
698 -> 720 ;
721 [label="X[6] <= 0.5\ngini = 0.44\nsamples = 3\nvalue = [2, 1]", fillcolor="#e581397f"] ;
71 -> 721 ;
722 [label="gini = 0.0\nsamples = 2\nvalue = [2, 0]", fillcolor="#e58139ff"] ;
721 -> 722 ;
723 [label="gini = 0.0\nsamples = 1\nvalue = [0, 1]", fillcolor="#399de5ff"] ;
721 -> 723 ;
724 [label="X[1330] <= 0.5\ngini = 0.44\nsamples = 3\nvalue = [2, 1]", fillcolor="#e581397f"] ;
70 -> 724 ;
725 [label="gini = 0.0\nsamples = 1\nvalue = [0, 1]", fillcolor="#399de5ff"] ;
724 -> 725 ;
726 [label="gini = 0.0\nsamples = 2\nvalue = [2, 0]", fillcolor="#e58139ff"] ;
724 -> 726 ;
727 [label="X[1329] <= 0.5\ngini = 0.44\nsamples = 3\nvalue = [2, 1]", fillcolor="#e581397f"] ;
69 -> 727 ;
728 [label="gini = 0.0\nsamples = 1\nvalue = [0, 1]", fillcolor="#399de5ff"] ;
727 -> 728 ;
729 [label="gini = 0.0\nsamples = 2\nvalue = [2, 0]", fillcolor="#e58139ff"] ;
727 -> 729 ;
730 [label="X[12] <= 0.5\ngini = 0.44\nsamples = 3\nvalue = [2, 1]", fillcolor="#e581397f"] ;
68 -> 730 ;
731 [label="gini = 0.0\nsamples = 2\nvalue = [2, 0]", fillcolor="#e58139ff"] ;
730 -> 731 ;
732 [label="gini = 0.0\nsamples = 1\nvalue = [0, 1]", fillcolor="#399de5ff"] ;
730 -> 732 ;
733 [label="X[6] <= 0.5\ngini = 0.44\nsamples = 3\nvalue = [2, 1]", fillcolor="#e581397f"] ;
67 -> 733 ;
734 [label="gini = 0.0\nsamples = 2\nvalue = [2, 0]", fillcolor="#e58139ff"] ;
733 -> 734 ;
735 [label="gini = 0.0\nsamples = 1\nvalue = [0, 1]", fillcolor="#399de5ff"] ;
733 -> 735 ;
736 [label="X[1338] <= 0.5\ngini = 0.44\nsamples = 3\nvalue = [2, 1]", fillcolor="#e581397f"] ;
66 -> 736 ;
737 [label="gini = 0.0\nsamples = 2\nvalue = [2, 0]", fillcolor="#e58139ff"] ;
736 -> 737 ;
738 [label="gini = 0.0\nsamples = 1\nvalue = [0, 1]", fillcolor="#399de5ff"] ;
736 -> 738 ;
739 [label="X[1342] <= 0.5\ngini = 0.21\nsamples = 59\nvalue = [52, 7]", fillcolor="#e58139dd"] ;
65 -> 739 ;
740 [label="X[1339] <= 0.5\ngini = 0.19\nsamples = 58\nvalue = [52, 6]", fillcolor="#e58139e2"] ;
739 -> 740 ;
741 [label="X[1330] <= 0.5\ngini = 0.16\nsamples = 56\nvalue = [51, 5]", fillcolor="#e58139e6"] ;
740 -> 741 ;
742 [label="X[17] <= 0.5\ngini = 0.08\nsamples = 45\nvalue = [43, 2]", fillcolor="#e58139f3"] ;
741 -> 742 ;
743 [label="gini = 0.0\nsamples = 40\nvalue = [40, 0]", fillcolor="#e58139ff"] ;
742 -> 743 ;
744 [label="X[8] <= 0.5\ngini = 0.48\nsamples = 5\nvalue = [3, 2]", fillcolor="#e5813955"] ;
742 -> 744 ;
745 [label="gini = 0.0\nsamples = 2\nvalue = [2, 0]", fillcolor="#e58139ff"] ;
744 -> 745 ;
746 [label="X[1334] <= 0.5\ngini = 0.44\nsamples = 3\nvalue = [1, 2]", fillcolor="#399de57f"] ;
744 -> 746 ;
747 [label="gini = 0.0\nsamples = 2\nvalue = [0, 2]", fillcolor="#399de5ff"] ;
746 -> 747 ;
748 [label="gini = 0.0\nsamples = 1\nvalue = [1, 0]", fillcolor="#e58139ff"] ;
746 -> 748 ;
749 [label="X[1333] <= 0.5\ngini = 0.4\nsamples = 11\nvalue = [8, 3]", fillcolor="#e581399f"] ;
741 -> 749 ;
750 [label="X[12] <= 0.5\ngini = 0.22\nsamples = 8\nvalue = [7, 1]", fillcolor="#e58139db"] ;
749 -> 750 ;
751 [label="gini = 0.0\nsamples = 7\nvalue = [7, 0]", fillcolor="#e58139ff"] ;
750 -> 751 ;
752 [label="gini = 0.0\nsamples = 1\nvalue = [0, 1]", fillcolor="#399de5ff"] ;
750 -> 752 ;
753 [label="X[8] <= 0.5\ngini = 0.44\nsamples = 3\nvalue = [1, 2]", fillcolor="#399de57f"] ;
749 -> 753 ;
754 [label="gini = 0.0\nsamples = 1\nvalue = [1, 0]", fillcolor="#e58139ff"] ;
753 -> 754 ;
755 [label="gini = 0.0\nsamples = 2\nvalue = [0, 2]", fillcolor="#399de5ff"] ;
753 -> 755 ;
756 [label="X[1329] <= 0.5\ngini = 0.5\nsamples = 2\nvalue = [1, 1]", fillcolor="#e5813900"] ;
740 -> 756 ;
757 [label="gini = 0.0\nsamples = 1\nvalue = [1, 0]", fillcolor="#e58139ff"] ;
756 -> 757 ;
758 [label="gini = 0.0\nsamples = 1\nvalue = [0, 1]", fillcolor="#399de5ff"] ;
756 -> 758 ;
759 [label="gini = 0.0\nsamples = 1\nvalue = [0, 1]", fillcolor="#399de5ff"] ;
739 -> 759 ;
760 [label="X[1329] <= 0.5\ngini = 0.29\nsamples = 17\nvalue = [14, 3]", fillcolor="#e58139c8"] ;
64 -> 760 ;
761 [label="X[1334] <= 0.5\ngini = 0.5\nsamples = 6\nvalue = [3, 3]", fillcolor="#e5813900"] ;
760 -> 761 ;
762 [label="X[4] <= 0.5\ngini = 0.48\nsamples = 5\nvalue = [2, 3]", fillcolor="#399de555"] ;
761 -> 762 ;
763 [label="X[1332] <= 0.5\ngini = 0.38\nsamples = 4\nvalue = [1, 3]", fillcolor="#399de5aa"] ;
762 -> 763 ;
764 [label="gini = 0.0\nsamples = 3\nvalue = [0, 3]", fillcolor="#399de5ff"] ;
763 -> 764 ;
765 [label="gini = 0.0\nsamples = 1\nvalue = [1, 0]", fillcolor="#e58139ff"] ;
763 -> 765 ;
766 [label="gini = 0.0\nsamples = 1\nvalue = [1, 0]", fillcolor="#e58139ff"] ;
762 -> 766 ;
767 [label="gini = 0.0\nsamples = 1\nvalue = [1, 0]", fillcolor="#e58139ff"] ;
761 -> 767 ;
768 [label="gini = 0.0\nsamples = 11\nvalue = [11, 0]", fillcolor="#e58139ff"] ;
760 -> 768 ;
769 [label="X[3] <= 0.5\ngini = 0.18\nsamples = 133\nvalue = [120, 13]", fillcolor="#e58139e3"] ;
63 -> 769 ;
770 [label="X[2] <= 0.5\ngini = 0.16\nsamples = 128\nvalue = [117, 11]", fillcolor="#e58139e7"] ;
769 -> 770 ;
771 [label="X[1335] <= 0.5\ngini = 0.15\nsamples = 126\nvalue = [116, 10]", fillcolor="#e58139e9"] ;
770 -> 771 ;
772 [label="X[1340] <= 0.5\ngini = 0.11\nsamples = 102\nvalue = [96, 6]", fillcolor="#e58139ef"] ;
771 -> 772 ;
773 [label="X[1333] <= 0.5\ngini = 0.1\nsamples = 98\nvalue = [93, 5]", fillcolor="#e58139f1"] ;
772 -> 773 ;
774 [label="X[1334] <= 0.5\ngini = 0.05\nsamples = 73\nvalue = [71, 2]", fillcolor="#e58139f8"] ;
773 -> 774 ;
775 [label="gini = 0.0\nsamples = 52\nvalue = [52, 0]", fillcolor="#e58139ff"] ;
774 -> 775 ;
776 [label="X[6] <= 0.5\ngini = 0.17\nsamples = 21\nvalue = [19, 2]", fillcolor="#e58139e4"] ;
774 -> 776 ;
777 [label="gini = 0.0\nsamples = 13\nvalue = [13, 0]", fillcolor="#e58139ff"] ;
776 -> 777 ;
778 [label="X[13] <= 0.5\ngini = 0.38\nsamples = 8\nvalue = [6, 2]", fillcolor="#e58139aa"] ;
776 -> 778 ;
779 [label="gini = 0.0\nsamples = 2\nvalue = [2, 0]", fillcolor="#e58139ff"] ;
778 -> 779 ;
780 [label="X[1330] <= 0.5\ngini = 0.44\nsamples = 6\nvalue = [4, 2]", fillcolor="#e581397f"] ;
778 -> 780 ;
781 [label="gini = 0.48\nsamples = 5\nvalue = [3, 2]", fillcolor="#e5813955"] ;
780 -> 781 ;
782 [label="gini = 0.0\nsamples = 1\nvalue = [1, 0]", fillcolor="#e58139ff"] ;
780 -> 782 ;
783 [label="X[5] <= 0.5\ngini = 0.21\nsamples = 25\nvalue = [22, 3]", fillcolor="#e58139dc"] ;
773 -> 783 ;
784 [label="X[6] <= 0.5\ngini = 0.17\nsamples = 22\nvalue = [20, 2]", fillcolor="#e58139e6"] ;
783 -> 784 ;
785 [label="X[8] <= 0.5\ngini = 0.11\nsamples = 17\nvalue = [16, 1]", fillcolor="#e58139ef"] ;
784 -> 785 ;
786 [label="gini = 0.0\nsamples = 7\nvalue = [7, 0]", fillcolor="#e58139ff"] ;
785 -> 786 ;
787 [label="X[1330] <= 0.5\ngini = 0.18\nsamples = 10\nvalue = [9, 1]", fillcolor="#e58139e3"] ;
785 -> 787 ;
788 [label="gini = 0.2\nsamples = 9\nvalue = [8, 1]", fillcolor="#e58139df"] ;
787 -> 788 ;
789 [label="gini = 0.0\nsamples = 1\nvalue = [1, 0]", fillcolor="#e58139ff"] ;
787 -> 789 ;
790 [label="X[1329] <= 0.5\ngini = 0.32\nsamples = 5\nvalue = [4, 1]", fillcolor="#e58139bf"] ;
784 -> 790 ;
791 [label="gini = 0.0\nsamples = 1\nvalue = [1, 0]", fillcolor="#e58139ff"] ;
790 -> 791 ;
792 [label="X[13] <= 0.5\ngini = 0.38\nsamples = 4\nvalue = [3, 1]", fillcolor="#e58139aa"] ;
790 -> 792 ;
793 [label="gini = 0.0\nsamples = 1\nvalue = [1, 0]", fillcolor="#e58139ff"] ;
792 -> 793 ;
794 [label="gini = 0.44\nsamples = 3\nvalue = [2, 1]", fillcolor="#e581397f"] ;
792 -> 794 ;
795 [label="gini = 0.44\nsamples = 3\nvalue = [2, 1]", fillcolor="#e581397f"] ;
783 -> 795 ;
796 [label="X[1329] <= 0.5\ngini = 0.38\nsamples = 4\nvalue = [3, 1]", fillcolor="#e58139aa"] ;
772 -> 796 ;
797 [label="gini = 0.0\nsamples = 1\nvalue = [0, 1]", fillcolor="#399de5ff"] ;
796 -> 797 ;
798 [label="gini = 0.0\nsamples = 3\nvalue = [3, 0]", fillcolor="#e58139ff"] ;
796 -> 798 ;
799 [label="X[4] <= 0.5\ngini = 0.28\nsamples = 24\nvalue = [20, 4]", fillcolor="#e58139cc"] ;
771 -> 799 ;
800 [label="X[18] <= 0.5\ngini = 0.17\nsamples = 22\nvalue = [20, 2]", fillcolor="#e58139e6"] ;
799 -> 800 ;
801 [label="X[1329] <= 0.5\ngini = 0.38\nsamples = 4\nvalue = [3, 1]", fillcolor="#e58139aa"] ;
800 -> 801 ;
802 [label="gini = 0.0\nsamples = 1\nvalue = [1, 0]", fillcolor="#e58139ff"] ;
801 -> 802 ;
803 [label="gini = 0.44\nsamples = 3\nvalue = [2, 1]", fillcolor="#e581397f"] ;
801 -> 803 ;
804 [label="X[8] <= 0.5\ngini = 0.1\nsamples = 18\nvalue = [17, 1]", fillcolor="#e58139f0"] ;
800 -> 804 ;
805 [label="gini = 0.0\nsamples = 10\nvalue = [10, 0]", fillcolor="#e58139ff"] ;
804 -> 805 ;
806 [label="X[1329] <= 0.5\ngini = 0.22\nsamples = 8\nvalue = [7, 1]", fillcolor="#e58139db"] ;
804 -> 806 ;
807 [label="gini = 0.0\nsamples = 1\nvalue = [1, 0]", fillcolor="#e58139ff"] ;
806 -> 807 ;
808 [label="gini = 0.24\nsamples = 7\nvalue = [6, 1]", fillcolor="#e58139d4"] ;
806 -> 808 ;
809 [label="gini = 0.0\nsamples = 2\nvalue = [0, 2]", fillcolor="#399de5ff"] ;
799 -> 809 ;
810 [label="X[1332] <= 0.5\ngini = 0.5\nsamples = 2\nvalue = [1, 1]", fillcolor="#e5813900"] ;
770 -> 810 ;
811 [label="gini = 0.0\nsamples = 1\nvalue = [1, 0]", fillcolor="#e58139ff"] ;
810 -> 811 ;
812 [label="gini = 0.0\nsamples = 1\nvalue = [0, 1]", fillcolor="#399de5ff"] ;
810 -> 812 ;
813 [label="X[1329] <= 0.5\ngini = 0.48\nsamples = 5\nvalue = [3, 2]", fillcolor="#e5813955"] ;
769 -> 813 ;
814 [label="gini = 0.0\nsamples = 1\nvalue = [1, 0]", fillcolor="#e58139ff"] ;
813 -> 814 ;
815 [label="X[15] <= 0.5\ngini = 0.5\nsamples = 4\nvalue = [2, 2]", fillcolor="#e5813900"] ;
813 -> 815 ;
816 [label="gini = 0.0\nsamples = 1\nvalue = [0, 1]", fillcolor="#399de5ff"] ;
815 -> 816 ;
817 [label="X[1334] <= 0.5\ngini = 0.44\nsamples = 3\nvalue = [2, 1]", fillcolor="#e581397f"] ;
815 -> 817 ;
818 [label="gini = 0.0\nsamples = 1\nvalue = [1, 0]", fillcolor="#e58139ff"] ;
817 -> 818 ;
819 [label="gini = 0.5\nsamples = 2\nvalue = [1, 1]", fillcolor="#e5813900"] ;
817 -> 819 ;
820 [label="X[1332] <= 0.5\ngini = 0.38\nsamples = 8\nvalue = [6, 2]", fillcolor="#e58139aa"] ;
62 -> 820 ;
821 [label="gini = 0.0\nsamples = 6\nvalue = [6, 0]", fillcolor="#e58139ff"] ;
820 -> 821 ;
822 [label="gini = 0.0\nsamples = 2\nvalue = [0, 2]", fillcolor="#399de5ff"] ;
820 -> 822 ;
823 [label="X[1335] <= 0.5\ngini = 0.41\nsamples = 7\nvalue = [5, 2]", fillcolor="#e5813999"] ;
61 -> 823 ;
824 [label="X[1332] <= 0.5\ngini = 0.28\nsamples = 6\nvalue = [5, 1]", fillcolor="#e58139cc"] ;
823 -> 824 ;
825 [label="gini = 0.0\nsamples = 4\nvalue = [4, 0]", fillcolor="#e58139ff"] ;
824 -> 825 ;
826 [label="X[18] <= 0.5\ngini = 0.5\nsamples = 2\nvalue = [1, 1]", fillcolor="#e5813900"] ;
824 -> 826 ;
827 [label="gini = 0.0\nsamples = 1\nvalue = [0, 1]", fillcolor="#399de5ff"] ;
826 -> 827 ;
828 [label="gini = 0.0\nsamples = 1\nvalue = [1, 0]", fillcolor="#e58139ff"] ;
826 -> 828 ;
829 [label="gini = 0.0\nsamples = 1\nvalue = [0, 1]", fillcolor="#399de5ff"] ;
823 -> 829 ;
830 [label="X[12] <= 0.5\ngini = 0.5\nsamples = 2\nvalue = [1, 1]", fillcolor="#e5813900"] ;
60 -> 830 ;
831 [label="gini = 0.0\nsamples = 1\nvalue = [1, 0]", fillcolor="#e58139ff"] ;
830 -> 831 ;
832 [label="gini = 0.0\nsamples = 1\nvalue = [0, 1]", fillcolor="#399de5ff"] ;
830 -> 832 ;
833 [label="X[13] <= 0.5\ngini = 0.5\nsamples = 2\nvalue = [1, 1]", fillcolor="#e5813900"] ;
59 -> 833 ;
834 [label="gini = 0.0\nsamples = 1\nvalue = [1, 0]", fillcolor="#e58139ff"] ;
833 -> 834 ;
835 [label="gini = 0.0\nsamples = 1\nvalue = [0, 1]", fillcolor="#399de5ff"] ;
833 -> 835 ;
836 [label="X[1329] <= 0.5\ngini = 0.5\nsamples = 2\nvalue = [1, 1]", fillcolor="#e5813900"] ;
58 -> 836 ;
837 [label="gini = 0.0\nsamples = 1\nvalue = [1, 0]", fillcolor="#e58139ff"] ;
836 -> 837 ;
838 [label="gini = 0.0\nsamples = 1\nvalue = [0, 1]", fillcolor="#399de5ff"] ;
836 -> 838 ;
839 [label="X[3] <= 0.5\ngini = 0.5\nsamples = 2\nvalue = [1, 1]", fillcolor="#e5813900"] ;
57 -> 839 ;
840 [label="gini = 0.0\nsamples = 1\nvalue = [1, 0]", fillcolor="#e58139ff"] ;
839 -> 840 ;
841 [label="gini = 0.0\nsamples = 1\nvalue = [0, 1]", fillcolor="#399de5ff"] ;
839 -> 841 ;
842 [label="X[13] <= 0.5\ngini = 0.5\nsamples = 2\nvalue = [1, 1]", fillcolor="#e5813900"] ;
56 -> 842 ;
843 [label="gini = 0.0\nsamples = 1\nvalue = [0, 1]", fillcolor="#399de5ff"] ;
842 -> 843 ;
844 [label="gini = 0.0\nsamples = 1\nvalue = [1, 0]", fillcolor="#e58139ff"] ;
842 -> 844 ;
845 [label="X[17] <= 0.5\ngini = 0.5\nsamples = 2\nvalue = [1, 1]", fillcolor="#e5813900"] ;
55 -> 845 ;
846 [label="gini = 0.0\nsamples = 1\nvalue = [1, 0]", fillcolor="#e58139ff"] ;
845 -> 846 ;
847 [label="gini = 0.0\nsamples = 1\nvalue = [0, 1]", fillcolor="#399de5ff"] ;
845 -> 847 ;
848 [label="X[13] <= 0.5\ngini = 0.5\nsamples = 2\nvalue = [1, 1]", fillcolor="#e5813900"] ;
54 -> 848 ;
849 [label="gini = 0.0\nsamples = 1\nvalue = [0, 1]", fillcolor="#399de5ff"] ;
848 -> 849 ;
850 [label="gini = 0.0\nsamples = 1\nvalue = [1, 0]", fillcolor="#e58139ff"] ;
848 -> 850 ;
851 [label="X[1330] <= 0.5\ngini = 0.5\nsamples = 2\nvalue = [1, 1]", fillcolor="#e5813900"] ;
53 -> 851 ;
852 [label="gini = 0.0\nsamples = 1\nvalue = [0, 1]", fillcolor="#399de5ff"] ;
851 -> 852 ;
853 [label="gini = 0.0\nsamples = 1\nvalue = [1, 0]", fillcolor="#e58139ff"] ;
851 -> 853 ;
854 [label="X[8] <= 0.5\ngini = 0.5\nsamples = 2\nvalue = [1, 1]", fillcolor="#e5813900"] ;
52 -> 854 ;
855 [label="gini = 0.0\nsamples = 1\nvalue = [0, 1]", fillcolor="#399de5ff"] ;
854 -> 855 ;
856 [label="gini = 0.0\nsamples = 1\nvalue = [1, 0]", fillcolor="#e58139ff"] ;
854 -> 856 ;
857 [label="X[17] <= 0.5\ngini = 0.5\nsamples = 2\nvalue = [1, 1]", fillcolor="#e5813900"] ;
51 -> 857 ;
858 [label="gini = 0.0\nsamples = 1\nvalue = [0, 1]", fillcolor="#399de5ff"] ;
857 -> 858 ;
859 [label="gini = 0.0\nsamples = 1\nvalue = [1, 0]", fillcolor="#e58139ff"] ;
857 -> 859 ;
860 [label="X[3] <= 0.5\ngini = 0.5\nsamples = 2\nvalue = [1, 1]", fillcolor="#e5813900"] ;
50 -> 860 ;
861 [label="gini = 0.0\nsamples = 1\nvalue = [1, 0]", fillcolor="#e58139ff"] ;
860 -> 861 ;
862 [label="gini = 0.0\nsamples = 1\nvalue = [0, 1]", fillcolor="#399de5ff"] ;
860 -> 862 ;
863 [label="X[6] <= 0.5\ngini = 0.5\nsamples = 2\nvalue = [1, 1]", fillcolor="#e5813900"] ;
49 -> 863 ;
864 [label="gini = 0.0\nsamples = 1\nvalue = [0, 1]", fillcolor="#399de5ff"] ;
863 -> 864 ;
865 [label="gini = 0.0\nsamples = 1\nvalue = [1, 0]", fillcolor="#e58139ff"] ;
863 -> 865 ;
866 [label="X[1337] <= 0.5\ngini = 0.5\nsamples = 2\nvalue = [1, 1]", fillcolor="#e5813900"] ;
48 -> 866 ;
867 [label="gini = 0.0\nsamples = 1\nvalue = [1, 0]", fillcolor="#e58139ff"] ;
866 -> 867 ;
868 [label="gini = 0.0\nsamples = 1\nvalue = [0, 1]", fillcolor="#399de5ff"] ;
866 -> 868 ;
869 [label="X[13] <= 0.5\ngini = 0.5\nsamples = 2\nvalue = [1, 1]", fillcolor="#e5813900"] ;
47 -> 869 ;
870 [label="gini = 0.0\nsamples = 1\nvalue = [1, 0]", fillcolor="#e58139ff"] ;
869 -> 870 ;
871 [label="gini = 0.0\nsamples = 1\nvalue = [0, 1]", fillcolor="#399de5ff"] ;
869 -> 871 ;
872 [label="X[1338] <= 0.5\ngini = 0.03\nsamples = 237\nvalue = [233, 4]", fillcolor="#e58139fb"] ;
46 -> 872 ;
873 [label="X[6] <= 0.5\ngini = 0.03\nsamples = 232\nvalue = [229, 3]", fillcolor="#e58139fc"] ;
872 -> 873 ;
874 [label="X[1329] <= 0.5\ngini = 0.02\nsamples = 220\nvalue = [218, 2]", fillcolor="#e58139fd"] ;
873 -> 874 ;
875 [label="gini = 0.0\nsamples = 97\nvalue = [97, 0]", fillcolor="#e58139ff"] ;
874 -> 875 ;
876 [label="X[1334] <= 0.5\ngini = 0.03\nsamples = 123\nvalue = [121, 2]", fillcolor="#e58139fb"] ;
874 -> 876 ;
877 [label="X[2] <= 0.5\ngini = 0.02\nsamples = 104\nvalue = [103, 1]", fillcolor="#e58139fd"] ;
876 -> 877 ;
878 [label="gini = 0.0\nsamples = 81\nvalue = [81, 0]", fillcolor="#e58139ff"] ;
877 -> 878 ;
879 [label="X[1332] <= 0.5\ngini = 0.08\nsamples = 23\nvalue = [22, 1]", fillcolor="#e58139f3"] ;
877 -> 879 ;
880 [label="gini = 0.0\nsamples = 10\nvalue = [10, 0]", fillcolor="#e58139ff"] ;
879 -> 880 ;
881 [label="gini = 0.14\nsamples = 13\nvalue = [12, 1]", fillcolor="#e58139ea"] ;
879 -> 881 ;
882 [label="X[13] <= 0.5\ngini = 0.1\nsamples = 19\nvalue = [18, 1]", fillcolor="#e58139f1"] ;
876 -> 882 ;
883 [label="gini = 0.0\nsamples = 17\nvalue = [17, 0]", fillcolor="#e58139ff"] ;
882 -> 883 ;
884 [label="X[10] <= 0.5\ngini = 0.5\nsamples = 2\nvalue = [1, 1]", fillcolor="#e5813900"] ;
882 -> 884 ;
885 [label="gini = 0.0\nsamples = 1\nvalue = [0, 1]", fillcolor="#399de5ff"] ;
884 -> 885 ;
886 [label="gini = 0.0\nsamples = 1\nvalue = [1, 0]", fillcolor="#e58139ff"] ;
884 -> 886 ;
887 [label="X[1334] <= 0.5\ngini = 0.15\nsamples = 12\nvalue = [11, 1]", fillcolor="#e58139e8"] ;
873 -> 887 ;
888 [label="gini = 0.0\nsamples = 11\nvalue = [11, 0]", fillcolor="#e58139ff"] ;
887 -> 888 ;
889 [label="gini = 0.0\nsamples = 1\nvalue = [0, 1]", fillcolor="#399de5ff"] ;
887 -> 889 ;
890 [label="X[4] <= 0.5\ngini = 0.32\nsamples = 5\nvalue = [4, 1]", fillcolor="#e58139bf"] ;
872 -> 890 ;
891 [label="gini = 0.0\nsamples = 4\nvalue = [4, 0]", fillcolor="#e58139ff"] ;
890 -> 891 ;
892 [label="gini = 0.0\nsamples = 1\nvalue = [0, 1]", fillcolor="#399de5ff"] ;
890 -> 892 ;
893 [label="X[1332] <= 0.5\ngini = 0.44\nsamples = 6\nvalue = [4, 2]", fillcolor="#e581397f"] ;
45 -> 893 ;
894 [label="gini = 0.0\nsamples = 3\nvalue = [3, 0]", fillcolor="#e58139ff"] ;
893 -> 894 ;
895 [label="X[13] <= 0.5\ngini = 0.44\nsamples = 3\nvalue = [1, 2]", fillcolor="#399de57f"] ;
893 -> 895 ;
896 [label="gini = 0.0\nsamples = 1\nvalue = [0, 1]", fillcolor="#399de5ff"] ;
895 -> 896 ;
897 [label="gini = 0.5\nsamples = 2\nvalue = [1, 1]", fillcolor="#e5813900"] ;
895 -> 897 ;
898 [label="X[17] <= 0.5\ngini = 0.25\nsamples = 62\nvalue = [53, 9]", fillcolor="#e58139d4"] ;
44 -> 898 ;
899 [label="X[1246] <= 0.5\ngini = 0.11\nsamples = 49\nvalue = [46, 3]", fillcolor="#e58139ee"] ;
898 -> 899 ;
900 [label="X[245] <= 0.5\ngini = 0.08\nsamples = 48\nvalue = [46, 2]", fillcolor="#e58139f4"] ;
899 -> 900 ;
901 [label="X[537] <= 0.5\ngini = 0.04\nsamples = 47\nvalue = [46, 1]", fillcolor="#e58139f9"] ;
900 -> 901 ;
902 [label="gini = 0.0\nsamples = 45\nvalue = [45, 0]", fillcolor="#e58139ff"] ;
901 -> 902 ;
903 [label="X[8] <= 0.5\ngini = 0.5\nsamples = 2\nvalue = [1, 1]", fillcolor="#e5813900"] ;
901 -> 903 ;
904 [label="gini = 0.0\nsamples = 1\nvalue = [1, 0]", fillcolor="#e58139ff"] ;
903 -> 904 ;
905 [label="gini = 0.0\nsamples = 1\nvalue = [0, 1]", fillcolor="#399de5ff"] ;
903 -> 905 ;
906 [label="gini = 0.0\nsamples = 1\nvalue = [0, 1]", fillcolor="#399de5ff"] ;
900 -> 906 ;
907 [label="gini = 0.0\nsamples = 1\nvalue = [0, 1]", fillcolor="#399de5ff"] ;
899 -> 907 ;
908 [label="X[4] <= 0.5\ngini = 0.5\nsamples = 13\nvalue = [7, 6]", fillcolor="#e5813924"] ;
898 -> 908 ;
909 [label="X[1089] <= 0.5\ngini = 0.46\nsamples = 11\nvalue = [7, 4]", fillcolor="#e581396d"] ;
908 -> 909 ;
910 [label="X[232] <= 0.5\ngini = 0.42\nsamples = 10\nvalue = [7, 3]", fillcolor="#e5813992"] ;
909 -> 910 ;
911 [label="X[29] <= 0.5\ngini = 0.35\nsamples = 9\nvalue = [7, 2]", fillcolor="#e58139b6"] ;
910 -> 911 ;
912 [label="X[685] <= 0.5\ngini = 0.22\nsamples = 8\nvalue = [7, 1]", fillcolor="#e58139db"] ;
911 -> 912 ;
913 [label="gini = 0.0\nsamples = 7\nvalue = [7, 0]", fillcolor="#e58139ff"] ;
912 -> 913 ;
914 [label="gini = 0.0\nsamples = 1\nvalue = [0, 1]", fillcolor="#399de5ff"] ;
912 -> 914 ;
915 [label="gini = 0.0\nsamples = 1\nvalue = [0, 1]", fillcolor="#399de5ff"] ;
911 -> 915 ;
916 [label="gini = 0.0\nsamples = 1\nvalue = [0, 1]", fillcolor="#399de5ff"] ;
910 -> 916 ;
917 [label="gini = 0.0\nsamples = 1\nvalue = [0, 1]", fillcolor="#399de5ff"] ;
909 -> 917 ;
918 [label="gini = 0.0\nsamples = 2\nvalue = [0, 2]", fillcolor="#399de5ff"] ;
908 -> 918 ;
919 [label="X[9] <= 0.5\ngini = 0.32\nsamples = 25\nvalue = [20, 5]", fillcolor="#e58139bf"] ;
43 -> 919 ;
920 [label="X[1342] <= 0.5\ngini = 0.17\nsamples = 22\nvalue = [20, 2]", fillcolor="#e58139e6"] ;
919 -> 920 ;
921 [label="X[1331] <= 0.5\ngini = 0.09\nsamples = 21\nvalue = [20, 1]", fillcolor="#e58139f2"] ;
920 -> 921 ;
922 [label="gini = 0.0\nsamples = 20\nvalue = [20, 0]", fillcolor="#e58139ff"] ;
921 -> 922 ;
923 [label="gini = 0.0\nsamples = 1\nvalue = [0, 1]", fillcolor="#399de5ff"] ;
921 -> 923 ;
924 [label="gini = 0.0\nsamples = 1\nvalue = [0, 1]", fillcolor="#399de5ff"] ;
920 -> 924 ;
925 [label="gini = 0.0\nsamples = 3\nvalue = [0, 3]", fillcolor="#399de5ff"] ;
919 -> 925 ;
926 [label="X[12] <= 0.5\ngini = 0.4\nsamples = 11\nvalue = [8, 3]", fillcolor="#e581399f"] ;
42 -> 926 ;
927 [label="X[699] <= 0.5\ngini = 0.22\nsamples = 8\nvalue = [7, 1]", fillcolor="#e58139db"] ;
926 -> 927 ;
928 [label="gini = 0.0\nsamples = 7\nvalue = [7, 0]", fillcolor="#e58139ff"] ;
927 -> 928 ;
929 [label="gini = 0.0\nsamples = 1\nvalue = [0, 1]", fillcolor="#399de5ff"] ;
927 -> 929 ;
930 [label="X[6] <= 0.5\ngini = 0.44\nsamples = 3\nvalue = [1, 2]", fillcolor="#399de57f"] ;
926 -> 930 ;
931 [label="gini = 0.0\nsamples = 2\nvalue = [0, 2]", fillcolor="#399de5ff"] ;
930 -> 931 ;
932 [label="gini = 0.0\nsamples = 1\nvalue = [1, 0]", fillcolor="#e58139ff"] ;
930 -> 932 ;
933 [label="X[6] <= 0.5\ngini = 0.48\nsamples = 5\nvalue = [3, 2]", fillcolor="#e5813955"] ;
41 -> 933 ;
934 [label="X[1338] <= 0.5\ngini = 0.44\nsamples = 3\nvalue = [1, 2]", fillcolor="#399de57f"] ;
933 -> 934 ;
935 [label="gini = 0.0\nsamples = 2\nvalue = [0, 2]", fillcolor="#399de5ff"] ;
934 -> 935 ;
936 [label="gini = 0.0\nsamples = 1\nvalue = [1, 0]", fillcolor="#e58139ff"] ;
934 -> 936 ;
937 [label="gini = 0.0\nsamples = 2\nvalue = [2, 0]", fillcolor="#e58139ff"] ;
933 -> 937 ;
938 [label="X[107] <= 0.5\ngini = 0.19\nsamples = 296\nvalue = [265, 31]", fillcolor="#e58139e1"] ;
40 -> 938 ;
939 [label="X[820] <= 0.5\ngini = 0.18\nsamples = 295\nvalue = [265, 30]", fillcolor="#e58139e2"] ;
938 -> 939 ;
940 [label="X[831] <= 0.5\ngini = 0.18\nsamples = 294\nvalue = [265, 29]", fillcolor="#e58139e3"] ;
939 -> 940 ;
941 [label="X[511] <= 0.5\ngini = 0.17\nsamples = 293\nvalue = [265, 28]", fillcolor="#e58139e4"] ;
940 -> 941 ;
942 [label="X[574] <= 0.5\ngini = 0.17\nsamples = 292\nvalue = [265, 27]", fillcolor="#e58139e5"] ;
941 -> 942 ;
943 [label="X[29] <= 0.5\ngini = 0.16\nsamples = 291\nvalue = [265, 26]", fillcolor="#e58139e6"] ;
942 -> 943 ;
944 [label="X[27] <= 0.5\ngini = 0.15\nsamples = 281\nvalue = [258, 23]", fillcolor="#e58139e8"] ;
943 -> 944 ;
945 [label="X[103] <= 0.5\ngini = 0.14\nsamples = 275\nvalue = [254, 21]", fillcolor="#e58139ea"] ;
944 -> 945 ;
946 [label="X[1120] <= 0.5\ngini = 0.14\nsamples = 273\nvalue = [253, 20]", fillcolor="#e58139eb"] ;
945 -> 946 ;
947 [label="X[587] <= 0.5\ngini = 0.13\nsamples = 271\nvalue = [252, 19]", fillcolor="#e58139ec"] ;
946 -> 947 ;
948 [label="X[8] <= 0.5\ngini = 0.12\nsamples = 264\nvalue = [247, 17]", fillcolor="#e58139ed"] ;
947 -> 948 ;
949 [label="X[853] <= 0.5\ngini = 0.09\nsamples = 194\nvalue = [185, 9]", fillcolor="#e58139f3"] ;
948 -> 949 ;
950 [label="X[694] <= 0.5\ngini = 0.08\nsamples = 193\nvalue = [185, 8]", fillcolor="#e58139f4"] ;
949 -> 950 ;
951 [label="X[1145] <= 0.5\ngini = 0.06\nsamples = 183\nvalue = [177, 6]", fillcolor="#e58139f6"] ;
950 -> 951 ;
952 [label="X[20] <= 0.5\ngini = 0.05\nsamples = 180\nvalue = [175, 5]", fillcolor="#e58139f8"] ;
951 -> 952 ;
953 [label="X[606] <= 0.5\ngini = 0.03\nsamples = 169\nvalue = [166, 3]", fillcolor="#e58139fa"] ;
952 -> 953 ;
954 [label="X[605] <= 0.5\ngini = 0.02\nsamples = 165\nvalue = [163, 2]", fillcolor="#e58139fc"] ;
953 -> 954 ;
955 [label="X[285] <= 0.5\ngini = 0.01\nsamples = 161\nvalue = [160, 1]", fillcolor="#e58139fd"] ;
954 -> 955 ;
956 [label="gini = 0.0\nsamples = 149\nvalue = [149, 0]", fillcolor="#e58139ff"] ;
955 -> 956 ;
957 [label="X[9] <= 0.5\ngini = 0.15\nsamples = 12\nvalue = [11, 1]", fillcolor="#e58139e8"] ;
955 -> 957 ;
958 [label="gini = 0.0\nsamples = 10\nvalue = [10, 0]", fillcolor="#e58139ff"] ;
957 -> 958 ;
959 [label="X[15] <= 0.5\ngini = 0.5\nsamples = 2\nvalue = [1, 1]", fillcolor="#e5813900"] ;
957 -> 959 ;
960 [label="gini = 0.0\nsamples = 1\nvalue = [0, 1]", fillcolor="#399de5ff"] ;
959 -> 960 ;
961 [label="gini = 0.0\nsamples = 1\nvalue = [1, 0]", fillcolor="#e58139ff"] ;
959 -> 961 ;
962 [label="X[12] <= 0.5\ngini = 0.38\nsamples = 4\nvalue = [3, 1]", fillcolor="#e58139aa"] ;
954 -> 962 ;
963 [label="gini = 0.44\nsamples = 3\nvalue = [2, 1]", fillcolor="#e581397f"] ;
962 -> 963 ;
964 [label="gini = 0.0\nsamples = 1\nvalue = [1, 0]", fillcolor="#e58139ff"] ;
962 -> 964 ;
965 [label="X[3] <= 0.5\ngini = 0.38\nsamples = 4\nvalue = [3, 1]", fillcolor="#e58139aa"] ;
953 -> 965 ;
966 [label="gini = 0.0\nsamples = 3\nvalue = [3, 0]", fillcolor="#e58139ff"] ;
965 -> 966 ;
967 [label="gini = 0.0\nsamples = 1\nvalue = [0, 1]", fillcolor="#399de5ff"] ;
965 -> 967 ;
968 [label="X[4] <= 0.5\ngini = 0.3\nsamples = 11\nvalue = [9, 2]", fillcolor="#e58139c6"] ;
952 -> 968 ;
969 [label="gini = 0.0\nsamples = 8\nvalue = [8, 0]", fillcolor="#e58139ff"] ;
968 -> 969 ;
970 [label="X[18] <= 0.5\ngini = 0.44\nsamples = 3\nvalue = [1, 2]", fillcolor="#399de57f"] ;
968 -> 970 ;
971 [label="X[1329] <= 0.5\ngini = 0.5\nsamples = 2\nvalue = [1, 1]", fillcolor="#e5813900"] ;
970 -> 971 ;
972 [label="gini = 0.0\nsamples = 1\nvalue = [0, 1]", fillcolor="#399de5ff"] ;
971 -> 972 ;
973 [label="gini = 0.0\nsamples = 1\nvalue = [1, 0]", fillcolor="#e58139ff"] ;
971 -> 973 ;
974 [label="gini = 0.0\nsamples = 1\nvalue = [0, 1]", fillcolor="#399de5ff"] ;
970 -> 974 ;
975 [label="X[13] <= 0.5\ngini = 0.44\nsamples = 3\nvalue = [2, 1]", fillcolor="#e581397f"] ;
951 -> 975 ;
976 [label="gini = 0.5\nsamples = 2\nvalue = [1, 1]", fillcolor="#e5813900"] ;
975 -> 976 ;
977 [label="gini = 0.0\nsamples = 1\nvalue = [1, 0]", fillcolor="#e58139ff"] ;
975 -> 977 ;
978 [label="X[1330] <= 0.5\ngini = 0.32\nsamples = 10\nvalue = [8, 2]", fillcolor="#e58139bf"] ;
950 -> 978 ;
979 [label="X[15] <= 0.5\ngini = 0.2\nsamples = 9\nvalue = [8, 1]", fillcolor="#e58139df"] ;
978 -> 979 ;
980 [label="gini = 0.0\nsamples = 7\nvalue = [7, 0]", fillcolor="#e58139ff"] ;
979 -> 980 ;
981 [label="gini = 0.5\nsamples = 2\nvalue = [1, 1]", fillcolor="#e5813900"] ;
979 -> 981 ;
982 [label="gini = 0.0\nsamples = 1\nvalue = [0, 1]", fillcolor="#399de5ff"] ;
978 -> 982 ;
